0.02016843 -0.05323061  0.0610907  -0.06045092 -0.0821888   0.00328819 -0.05435738  0.09503053 -0.05479536  0.0324824  -0.13681532 -0.14462678 -0.00472437 -0.0076906   0.10431261 -0.05870388
 -0.19470716 -0.02575724  0.15651472 -0.16688424  0.01018513  0.07700559  0.02787791  0.03198543 -0.03164829  0.08698467  0.04331841  0.01591236  0.04447239 -0.05879039  0.146355    0.07017404
  0.1231019  -0.00893259  0.04682972  0.04961144  0.00691193  0.00307435  0.02809948 -0.06312366  0.03384484 -0.08261122  0.04476526  0.16826054 -0.02639869 -0.03346927 -0.04836692  0.0152585
 -0.08813772 -0.08845595  0.06089358 -0.03563594  0.09505381 -0.0883332  -0.02400292 -0.00444924  0.08862314 -0.09263471 -0.0033205   0.02862207  0.1122527   0.06119045  0.03577075  0.04114489
 -0.06702235  0.0197951  -0.00746751  0.0343282  -0.0551455  -0.09399629  0.02733864 -0.13956892 -0.05637613  0.07258543 -0.02941826  0.10233479 -0.01882813  0.03720515 -0.01168133 -0.04048885
 -0.02014189 -0.03450865  0.06723364 -0.03578493 -0.03179605  0.0046422  -0.01446885  0.02503512 -0.03402891 -0.13507129  0.06148089 -0.04960932 -0.03433717  0.1525419  -0.04071067 -0.05941145
 -0.10413671 -0.09908456 -0.16782613 -0.0726539  -0.10344525  0.05313475  0.04107141  0.07739087 -0.00493456 -0.06565134 -0.04176607 -0.00478767 -0.04190504 -0.02011721  0.1842851   0.08795919
 -0.04419124  0.01998558  0.1333193  -0.11389451 -0.04358224  0.08447764 -0.16415201 -0.06530164  0.04123065 -0.18068343  0.04649974  0.03640478 -0.0271757   0.02473206 -0.00079446 -0.13042703
