-6.14983924e-02 6.70865104e-02 -4.56441343e-02 -7.23486602e-01 1.99560404e-01 -1.14165381e-01  2.84998626e-01 -4.15811911e-02 -2.54877567e-01 -1.57028660e-01  7.24517405e-02 -6.00310504e-01
 -2.49095961e-01 -4.54761744e-01 -1.86924487e-01 -4.79674898e-02 -3.09039354e-02 -3.27373058e-01 -2.18555525e-01 -3.79435688e-01  5.91603070e-02 -1.91679344e-01 -1.63728744e-02  1.41665176e-01
  7.96019137e-02  1.98800325e-01  4.59006429e-01 -1.61489531e-01 -9.87622887e-02  6.82159960e-02  2.69408431e-02 -4.13235009e-01  1.43052056e-01  4.10407670e-02 -1.74400330e-01  1.71163830e-03
  4.69052307e-02 -2.48176157e-01  5.71831428e-02 -1.07711457e-01  5.60616031e-02 -8.99342373e-02  1.92412019e-01  2.61210293e-01 -6.06736355e-02  1.94289818e-01  3.95868570e-02 -6.20312952e-02
  9.11728218e-02  1.20047815e-01  3.90127152e-02 -3.20593566e-02 -7.50098675e-02  1.25519866e-02 -1.28931984e-01 -6.75385535e-01 -9.78556201e-02 -3.57156619e-02 -1.15523934e-01 -6.06102645e-02
  3.90065610e-02 -1.21843480e-01  7.90953487e-02  1.98320985e-01 -3.72844897e-02 -6.43247887e-02 -1.08769266e-02  1.77038889e-02 -2.55497009e-01 -7.88439289e-02 -3.59066218e-01 -1.04218684e-01
 -2.38740966e-01  8.20555463e-02 -9.15179551e-02  4.42000898e-03  4.96725701e-02 -1.60123423e-01  2.15202179e-02 -4.03755419e-02 -2.75929719e-01 -5.12135550e-02  2.76442915e-02  1.32467210e-01
  1.85738176e-01  1.55006513e-01 -1.89261697e-02 -2.54032016e-01 -6.02596775e-02 -1.30616009e-01 -6.21993504e-02 -6.47625327e-02 -2.55389512e-01  1.06884524e-01 -2.13910401e-01 -6.79465607e-02
 -1.88027322e-01 -7.24462718e-02 -2.01273579e-02 -3.70055437e-01 -1.60854682e-01 -9.86623108e-01  4.13218915e-01 -1.50302202e-01 -2.77475685e-01  1.60791874e-02 -1.99082121e-01 -2.90375024e-01
 -1.66932851e-01  2.21903417e-02 -3.81054789e-01  6.50237501e-02 -1.42453060e-01 -9.76775065e-02 -4.32274342e-02 -2.44844463e-02 -9.56063643e-02 -1.90381989e-01  1.28907384e-02 -6.37263000e-01
 -6.84995353e-02 -1.76337644e-01  8.84793922e-02 -1.57659445e-02 -1.44136354e-01 -8.73991698e-02 -2.28232190e-01 -3.28810483e-01 -1.07982695e-01 -6.74721599e-02  6.23901226e-02 -1.95955187e-01
 -9.02781859e-02 -6.23832762e-01  2.91333079e-01 -1.85476035e-01 -2.38551736e-01  8.08746181e-03 -1.80968449e-01  2.03909278e-01 -1.00158073e-01  2.37076730e-01 -1.24828048e-01  2.36917362e-01
 -5.04428864e-01 -1.89561337e-01  6.61282763e-02  9.51884389e-02 -1.39889866e-01 -2.64535248e-01  1.14806211e-02  4.91674781e-01 -1.59860358e-01 -1.97751731e-01 -1.76340297e-01 -6.42558515e-01
 -1.54515773e-01 -3.28322463e-02 -3.44004691e-01 -1.80334955e-01 -3.14068757e-02  1.15634985e-02 -1.41537040e-01  3.28599513e-02  1.37667745e-01  6.70818016e-02 -3.54201227e-01 -7.37668723e-02
  9.90141649e-03 -2.35217556e-01 -2.56124865e-02  9.22148116e-03 -1.19041232e-02  1.27689511e-01  4.46920842e-02 -2.49944463e-01  1.28678456e-01 -8.16698372e-02 -5.12565151e-02 -2.48291001e-01
  3.24449301e-01 -7.98537508e-02 -4.48213294e-02 -1.45412743e-01 -1.26045406e-01 -1.04558922e-01 -4.94802386e-01  1.25221565e-01  2.14336708e-01  9.16242003e-02  2.11690143e-01 -9.83312055e-02
 -4.04406935e-01 -3.64491016e-01  5.75805865e-02 -4.23656076e-01  2.23690346e-01  9.25889006e-04 -3.64337623e-01 -1.51830286e-01 -3.92397970e-01 -1.98138133e-01 -3.17425668e-01 -4.96132523e-01
 -2.68513978e-01 -2.95370698e-01 -2.21218280e-02  1.32634610e-01 -1.56196713e-01 -4.39505249e-01 -2.23758444e-01 -3.57524276e-01  1.40016258e-01 -3.39956909e-01  2.04624273e-02  2.37380669e-01
 -2.88487017e-01 -5.79497159e-01 -3.67986888e-01  3.09734523e-01 -3.89792472e-01  3.65621634e-02 -1.47558013e-02 -1.83880299e-01  2.91291624e-02  2.21970305e-01 -6.92403913e-02 -5.82025759e-03
 -2.34927922e-01  7.24329725e-02 -1.43143326e-01 -2.09523529e-01 -3.46447945e-01 -2.48897970e-01 -6.64202571e-02 -2.21943438e-01  5.42909354e-02 -2.26902336e-01  2.16618046e-01 -7.30446950e-02
  2.64732800e-02  3.80453020e-02 -4.61112484e-02 -1.84100717e-01  4.39330749e-02  1.98287189e-01 -2.12593824e-01  2.78343052e-01 -1.48782313e-01  7.34061450e-02  7.73120970e-02 -1.68080032e-01
 -2.00540587e-01  5.74156195e-02  9.08225030e-03 -1.60900280e-01 -3.16856205e-01 -3.02689165e-01  8.78364369e-02 -2.01629594e-01  5.54917790e-02  2.72584617e-01  1.94641411e-01 -3.79535019e-01
 -1.12546697e-01  5.47118150e-02 -2.13809311e-01 -1.03822239e-01  5.15457913e-02  1.48770452e-01 -1.84750900e-01  2.05893323e-01  8.25276319e-03 -2.32123226e-01 -6.74427599e-02  8.82814899e-02
 -8.09889957e-02 -2.00288892e-01 -4.51011732e-02 -6.54993236e-01 -2.88223445e-01 -5.10009050e-01 -2.29866147e-01  3.37566853e-01  1.20412983e-01  3.32208537e-02  2.77625293e-01  3.41298908e-01
 -2.35886589e-01 -2.22909674e-02 -9.50462520e-02 -4.46952075e-01  2.07683295e-01 -8.62276927e-02  2.60613253e-03  1.25173451e-02  4.95615751e-02 -9.83687118e-02 -2.21916456e-02 -5.78558981e-01
 -2.23702550e-01 -3.18891943e-01 -2.54186150e-02 -7.76769640e-03  3.32084484e-02 -2.85907835e-01 -2.36883983e-01 -7.14706853e-02  1.47901252e-02 -2.91245401e-01 -1.17318809e-01  6.01821356e-02
  9.51264333e-03 -9.33221579e-02 -1.29854111e-02  2.04977348e-01 -4.14903723e-02 -8.86903033e-02  1.07992493e-01 -2.95992196e-01  7.02172443e-02  2.96235401e-02 -1.73940703e-01  9.91455913e-02
 -1.46029163e-02  3.18906397e-01 -1.30056366e-01 -1.42009199e-01 -1.35438039e-03  1.66252628e-01 -3.83061431e-02  1.21198788e-01  1.38035685e-01  1.51114151e-01  1.16165075e-03 -1.89689435e-02
 -2.76716482e-02  8.94803479e-02 -6.83213174e-02  3.27311456e-02  2.07174923e-02  6.99595809e-02 -1.81476891e-01 -3.25586885e-01 -1.78661734e-01 -1.61697924e-01 -6.05873056e-02  7.12276101e-02
 -2.83992141e-02  8.67997203e-03  1.23463735e-01  1.92047611e-01 -7.97356293e-03  1.10052042e-01 -5.86756431e-02 -5.92719555e-01  1.72068089e-01 -4.61306632e-01  2.09458947e-01 -5.54585829e-03
 -8.00737739e-02 -5.13277613e-02  8.91483761e-03 -6.22137606e-01 -3.74309868e-01 -3.28372955e-01 -5.15006743e-02 -6.85480386e-02  1.38828069e-01 -2.41594568e-01 -1.77508101e-01 -1.89506799e-01
 -7.97096044e-02 -1.89930603e-01  3.76710831e-03 -3.99720594e-02  4.56515551e-02  4.92345542e-02 -2.37487536e-02  9.14988443e-02 -8.63111839e-02  8.17919150e-02 -4.21838947e-02 -5.91500998e-01
 -4.33441065e-02 -1.39168590e-01 -3.42265144e-02 -1.54761136e-01  5.83741218e-02 -3.19037795e-01  2.53859401e-01 -9.60110351e-02 -4.99621093e-01  7.88985342e-02 -2.03964129e-01  1.25605673e-01
 -1.69691354e-01  2.38670632e-01 -1.09962650e-01  9.09266770e-02 -1.43500283e-01  5.95488511e-02  1.38001040e-01  3.73479754e-01 -2.61053026e-01 -3.81332003e-02  6.24643825e-02  2.24179536e-01
 -9.90278944e-02 -1.93793595e-01  1.02726065e-01 -5.58793306e-01 -4.53600794e-01 -7.79902786e-02 -5.63255608e-01  1.35069322e-02 -1.82671860e-01  2.61246860e-01  7.19051212e-02 -5.52304089e-01
 -1.10489622e-01 -3.90710682e-01  2.26626813e-01  1.80448115e-01  5.69165945e-02 -3.67898345e-02 -8.60788152e-02 -1.83252573e-01 -1.02506720e-01  1.00248545e-01 -1.84636816e-01  1.71555117e-01
 -1.25794843e-01 -3.22055183e-02  1.59230139e-02  8.52518901e-02 -1.27143458e-01 -1.73379615e-01  9.85922888e-02  2.80985445e-01 -6.81952685e-02 -2.36461490e-01 -7.39733875e-02 -6.72457278e-01
 -2.19613627e-01 -9.17516425e-02  1.21189900e-01 -1.95659414e-01  3.67615521e-02  1.55334041e-01 -1.80934176e-01  1.05715422e-02 -5.75550757e-02 -2.15408236e-01 -9.50294733e-02  2.06036009e-02
 -4.68057580e-03 -3.14588584e-02 -1.24633387e-02  9.02388841e-02 -1.25883028e-01 -1.97507422e-02  1.59228280e-01 -2.78322488e-01  1.28855109e-01  4.70341779e-02  5.19815981e-02 -2.83754319e-02
 -2.79166430e-01  9.85670909e-02 -1.60791278e-01  1.38819084e-01 -8.75153467e-02  3.36953253e-02 -3.29096429e-02  6.03532530e-02  1.31022036e-01 -1.97237074e-01 -2.98927370e-02 -8.28252882e-02
 -1.42108217e-01  4.74668778e-02  4.72140440e-04  2.70817310e-01 -1.04118094e-01  1.36557877e-01 -5.22510707e-01 -2.70473957e-01 -1.74922898e-01  2.14607604e-02 -1.52368456e-01  3.39847356e-01
  2.92505801e-01  2.35566705e-01  3.03854227e-01 -4.32857275e-02 -1.80486962e-01  2.80863166e-01  2.36141071e-01  1.74624264e-01 -2.63998747e-01  3.36170852e-01  2.16210838e-02 -4.98620301e-01
 -1.21445201e-01 -1.67465299e-01 -2.23215044e-01 -1.19312167e+00  1.47400573e-01  6.85895560e-03 -3.21496367e-01  2.94219404e-01 -1.29836947e-01  7.67721385e-02 -4.39805053e-02 -3.07823867e-01
 -5.07575348e-02 -8.03038538e-01  2.81540245e-01 -1.23215184e-01 -1.58901840e-01 -1.44511744e-01 -2.89692611e-01 -6.42944276e-02 -1.98697940e-01  1.00700818e-01 -1.39386788e-01  7.96391740e-02
 -9.78403911e-02 -1.72222570e-01 -3.53474822e-03  8.91493931e-02 -2.50012636e-01 -1.64322361e-01  1.40010444e-02  4.42064941e-01 -5.04335798e-02 -1.00512311e-01  1.03856340e-01 -5.45897603e-01
 -3.49952281e-01 -1.43021578e-02 -1.30596280e-01 -2.88307518e-01 -2.40896970e-01  2.12082773e-01 -1.59170568e-01 -4.01977986e-01  1.50681630e-01 -3.62414896e-01  1.42545372e-01  2.58016996e-02
 -7.34963566e-02 -2.08763987e-01 -1.82120472e-01 -4.36981082e-01 -4.09431666e-01 -1.80162534e-01  1.53672593e-02  1.43431006e-02 -9.58659500e-02 -4.46723104e-01 -2.47488663e-01 -2.84096748e-01
 -3.04228906e-02 -1.92240819e-01 -8.07747152e-03  5.89199722e-01  5.60819265e-03 -1.04527779e-01  2.90450245e-01 -2.59432234e-02 -1.41997129e-01 -9.04176086e-02 -4.55537392e-03 -3.71583492e-01
 -1.66837461e-02 -8.14389214e-02 -1.46432891e-01 -5.41391790e-01  2.10238680e-01 -1.60957232e-01  5.21149077e-02  3.53370421e-02 -2.42360637e-01 -1.81266874e-01 -5.30395284e-02 -5.79359114e-01
 -3.91794652e-01 -3.18787009e-01 -1.31046310e-01 -4.43561152e-02  4.10966575e-02 -1.35780588e-01 -2.66486853e-01 -2.07503811e-01  1.52273968e-01 -5.93497977e-02 -8.88930932e-02  8.99974480e-02
 -6.70141447e-03  5.91905527e-02  8.61510867e-04  1.61652431e-01 -1.30794972e-01 -8.16836134e-02  2.26513296e-01 -4.49678361e-01  2.80918851e-02  1.49593219e-01 -6.63621128e-02 -1.91370636e-01
 -7.79305473e-02  6.94257244e-02  5.44420108e-02  6.66068271e-02 -2.73179948e-01 -3.01102102e-01  1.61785215e-01 -2.32000187e-01 -8.49597231e-02 -1.68506145e-01  2.13995114e-01 -2.12133631e-01
  1.64857700e-01  9.69554633e-02 -1.90603137e-01 -2.92149812e-01  8.42676088e-02  6.34989440e-02 -2.00745746e-01  2.96950340e-01 -1.21971861e-01  2.21550539e-01  9.37671363e-02 -2.69969970e-01
 -1.05833329e-01 -1.74249634e-01  6.63594157e-02 -1.62861809e-01 -1.25089914e-01 -1.08790463e-02  9.59256012e-03 -2.28175476e-01  1.67514965e-01 -3.00410300e-01  8.68074000e-02 -1.24860451e-01
  5.93568683e-02 -1.74859658e-01  2.33885888e-02 -2.44096145e-01 -2.43411779e-01  1.04688350e-02 -2.95327127e-01  1.09732673e-02 -8.60605687e-02 -1.43540159e-01 -1.30055308e-01 -2.27654800e-01
 -1.58479884e-01 -8.57333019e-02 -1.57470226e-01  7.56446570e-02 -1.82249472e-01  9.90332514e-02  7.17954487e-02  1.29620194e-01 -4.60879765e-02 -5.52035533e-02  1.37541994e-01 -3.39513719e-01
  1.98861271e-01  2.95919567e-01 -1.09439149e-01 -2.37897456e-01 -5.91204911e-02 -1.34637997e-01  8.56503770e-02 -1.02475602e-02 -1.27385482e-01 -1.68365031e-01  2.10632563e-01 -3.23229790e-01
 -2.21172526e-01 -2.66829699e-01  1.42207980e-01 -1.10903628e-01  1.65513545e-01 -7.76309669e-02 -1.94833890e-01 -1.23798000e-02  7.51673151e-03  1.27977178e-01 -2.38967352e-02  2.42672399e-01
  6.82801902e-02  1.80147156e-01  2.14782864e-01 -2.83493996e-01 -1.38504624e-01 -4.33948524e-02  8.06560442e-02 -3.01200151e-01 -1.42669454e-01 -3.19947451e-01  4.87966323e-03 -6.63135350e-01
  4.08992581e-02  1.81002080e-01  2.39063248e-01 -3.55851918e-01 -3.72499168e-01  7.64859840e-02 -2.41497755e-01 -3.06252360e-01  1.18607126e-01 -1.28008291e-01 -3.29630435e-01  2.93482661e-01
 -2.33910722e-03 -2.85217255e-01  2.86961137e-03  6.01733625e-02  2.18835250e-01 -2.39220649e-01  9.33590084e-02 -6.19898021e-01 -2.54436672e-01 -5.13142407e-01 -2.36977842e-02  1.66020304e-01
 -1.11754768e-01  1.67955726e-01  1.15936182e-01 -1.76858380e-02  5.22230156e-02  1.62861735e-01 -2.02761129e-01  2.51706485e-02  2.22016037e-01 -2.07488611e-02  1.72657549e-01  2.26631779e-02
  1.00297883e-01 -1.85291365e-01  1.99634045e-01  1.63382918e-01  4.67346348e-02  4.70470041e-02 -1.05828810e-02  8.83936435e-02  1.89549074e-01  4.17762250e-02 -7.52332434e-02 -1.65982619e-01
 -2.20357180e-01 -4.47292328e-02 -1.66900352e-01 -1.78877026e-01  6.28565848e-02  2.76930239e-02 -5.20685920e-03 -5.02148783e-03  8.01192746e-02 -2.00451493e-01  8.13279003e-02  1.88842773e-01
  2.02866122e-02  1.06704079e-01 -3.32674421e-02 -7.80593693e-01  4.95149642e-02 -5.22916853e-01  2.55203575e-01 -4.83895317e-02 -1.54966712e-01 -2.37638906e-01  1.08143933e-01 -4.89324033e-01
 -4.91037458e-01 -2.61163920e-01 -3.39379251e-01 -5.83451334e-03  1.63364470e-01 -1.13219574e-01 -1.93479165e-01 -2.78766721e-01 -2.80122668e-01 -4.59806286e-02 -1.91566601e-01  2.03410938e-01
 -6.04137685e-03 -1.93854440e-02  9.28478763e-02  9.93911326e-02 -4.23102491e-02 -1.68635681e-01 -1.03258314e-02 -5.29424131e-01 -7.08357766e-02 -1.00405067e-01 -1.46840140e-01  1.69159561e-01
 -1.77641019e-01  2.83808380e-01 -4.60339010e-01 -4.89836961e-01 -4.62240010e-01 -4.12982777e-02 -3.50376576e-01  9.68617722e-02  1.81307241e-01  8.16522632e-03  3.12702864e-01 -2.20852979e-02
 -1.73942581e-01 -8.82069841e-02  9.83473510e-02  1.55695274e-01  2.38824144e-01  5.75364195e-02 -1.14336163e-01 -1.53634116e-01 -2.95270622e-01 -3.57287258e-01 -3.44633996e-01 -5.43684512e-02
 -2.50864714e-01  1.05851874e-01  4.78998572e-02  1.29396707e-01  3.45300399e-02  1.02594018e-01 -7.79958442e-02 -6.87595487e-01  1.87518179e-01 -7.05692708e-01  2.74422526e-01  1.74056049e-02
 -1.28628880e-01 -1.85202911e-01  1.59094840e-01 -4.46098745e-01 -4.47430342e-01 -1.42741829e-01 -2.13989988e-01  4.32221368e-02  3.26176494e-01 -1.33271329e-02 -2.24216536e-01 -2.43677348e-01
 -2.50618309e-01 -5.99320531e-02  3.90940858e-03  3.00683707e-01 -4.95348051e-02  1.33687958e-01  7.55099580e-02  1.57120883e-01  4.57261167e-02 -2.23680273e-01  1.85914859e-01 -5.52758634e-01
 -2.62144297e-01 -1.10927962e-01 -4.74715047e-02  2.71932095e-01 -1.10553019e-01  1.18586300e-02 -4.03819442e-01 -2.66275048e-01 -4.66200747e-02  2.55196482e-01 -1.95054233e-01  2.93915212e-01
  4.11538482e-02  2.80658752e-01 -7.83261135e-02  1.74061850e-01 -3.76575470e-01  1.67771727e-01  1.03304237e-01  3.12735885e-01 -2.22311139e-01  1.80884883e-01  8.95796642e-02 -1.65730372e-01
 -4.80098315e-02 -2.54489541e-01 -3.50763112e-01 -7.03509569e-01  2.90951908e-01  2.96588764e-02 -4.29158866e-01  1.72105402e-01  1.54162437e-01  8.00909400e-02 -1.50554925e-01  6.77762851e-02
  1.44287303e-01 -2.21650466e-01 -7.23761618e-02 -1.09479912e-01  4.39404920e-02 -1.28191888e-01  1.65119439e-01  1.44621328e-01 -4.61055152e-02  1.39202610e-01  2.15198547e-02 -5.93536757e-02
  2.25086704e-01  1.48801267e-01 -7.27339685e-02  1.44621544e-02 -1.48575813e-01  3.94189656e-02 -1.40656933e-01 -2.10953638e-01 -9.29717645e-02  5.03834384e-03 -7.67716542e-02 -9.18250382e-02
  9.86363888e-02 -3.12226921e-01 -1.72789302e-02 -7.77405202e-02 -5.12858570e-01  6.04040697e-02  2.43259985e-02 -4.04545993e-01 -9.58109647e-02  2.70284593e-01  2.99322069e-01 -6.95307627e-02
 -2.73206532e-01  1.13015518e-01 -3.75949174e-01 -5.08851171e-01 -6.03614002e-02 -3.11824709e-01 -3.40712368e-02  1.39333144e-01 -2.61262506e-01 -6.05832219e-01 -4.31835055e-02 -5.65370880e-02
  2.60983855e-01 -3.87899071e-01 -1.00705728e-01  2.03697115e-01 -1.44089460e-01 -1.95770010e-01  2.48835936e-01 -1.66756921e-02 -1.42565906e-01  1.45600080e-01  8.32507573e-03 -1.36229172e-01
 -1.33941889e-01 -4.37298864e-02 -1.06360115e-01 -7.48274684e-01  1.79320082e-01 -2.34970599e-01  5.59295602e-02 -3.14460322e-02 -1.35533407e-01  7.02787936e-02  6.27116412e-02 -6.60952568e-01
 -5.20601571e-01 -3.54887694e-01 -1.00262031e-01  4.04740404e-03  1.72139212e-01 -2.48963922e-01 -1.58855587e-01 -3.32669802e-02  1.22667298e-01 -2.25315407e-01 -1.31937638e-01  7.21071661e-02
 -3.78456414e-02  8.37546289e-02 -3.77860516e-02  1.03145972e-01 -6.57102838e-03 -1.13110570e-02  1.31928265e-01 -4.30912942e-01  1.47600606e-01  1.34029642e-01 -2.40537435e-01 -2.92839541e-05
  4.73781787e-02 -2.15089187e-01 -2.13191867e-01  1.82608492e-03  7.01937601e-02  1.60594806e-02  8.78832713e-02  1.49025530e-01 -2.02041164e-01 -1.48045539e-03  6.08580559e-02 -2.94313639e-01
  9.63634476e-02  8.35742876e-02 -3.91153768e-02 -9.57850218e-02  6.15620799e-03  1.08962148e-01 -1.08624361e-01  8.00704286e-02 -9.33226123e-02 -3.17368470e-02 -2.37015009e-01 -5.60997985e-02
  2.09752366e-01 -1.27029389e-01  1.19913854e-01  7.21375048e-02 -6.65867850e-02  1.64115682e-01 -5.31189814e-02 -3.19115594e-02  2.96882652e-02  2.57765353e-02  2.08857909e-01  3.75167280e-02
  8.64697620e-02  2.63090301e-02 -5.51676340e-02 -1.74646914e-01 -9.32664871e-02 -1.62157223e-01 -8.27430636e-02 -2.11698398e-01  5.19128032e-02 -2.64034308e-02 -9.05059576e-02 -1.29377171e-01
  4.54344004e-02 -6.90857470e-02 -1.44633085e-01 -6.33086786e-02  6.52690530e-02  1.38526242e-02  3.00599575e-01 -1.46490574e-01  1.66782010e-02  3.28441620e-01 -1.64173245e-01 -1.79148894e-02
  1.97471548e-02 -6.32140189e-02 -1.63045287e-01  1.05513819e-02  1.20338378e-02 -2.50247091e-01  7.82058537e-02  4.20950204e-02  1.20203152e-01  2.51864176e-02  1.22739173e-01  6.58313185e-02
 -2.99221277e-02 -3.86345461e-02  9.94659662e-02  1.53121734e-02  4.51392494e-02  1.76521227e-01 -3.02835293e-02  8.53685588e-02  4.26618084e-02  1.82541266e-01 -3.87484394e-02 -8.92648578e-01
 -1.03675880e-01  1.58117160e-01  3.41804065e-02 -2.46539675e-02  6.48129135e-02 -2.17294022e-01 -1.89382769e-02 -2.91576326e-01  8.50505102e-03 -2.76150852e-01  3.07915267e-02  1.28343418e-01
 -3.94040681e-02  8.25021118e-02 -5.49916089e-01 -2.46869296e-01 -1.57893091e-01  2.12191567e-02 -2.00608447e-01  7.04847574e-02  8.16197172e-02 -5.60996458e-02 -1.44708246e-01 -3.51318687e-01
  2.19176337e-02 -1.75936624e-01  1.30770907e-01  8.01507290e-03  1.64633229e-01  5.47143184e-02 -6.02990389e-02 -1.81860074e-01 -2.85862148e-01 -3.57282311e-01 -4.95472431e-01  1.31695747e-01
 -1.68456346e-01  9.87320542e-02 -9.68897715e-02  1.23080984e-01 -1.73643798e-01  5.10275587e-02  6.05602339e-02 -2.44993389e-01  4.17552516e-02 -1.77178323e-01  5.34684479e-01 -2.03539222e-01
 -3.27847898e-01  2.09482387e-01 -2.40310684e-01 -1.18434407e-01  6.95340708e-02 -2.74562865e-01 -5.31521857e-01  1.03049874e-01 -3.29510272e-01 -4.94107604e-01 -7.35606626e-02  1.46888793e-01
 -1.36625278e-03 -2.20556021e-01  8.36216956e-02 -4.42661077e-01  3.93896960e-02 -1.95126429e-01 -1.36060238e-01 -7.53231347e-02 -1.14066981e-01  2.17824787e-01 -2.18378648e-01 -3.04334700e-01
 -2.77488291e-01  3.62896100e-02  1.00336984e-01 -1.81319118e-01 -3.42450202e-01  6.98013930e-03  1.18956044e-01 -4.12609875e-01 -2.58340776e-01 -4.68833447e-01 -5.29512823e-01  6.55994043e-02
  1.02908596e-01  9.23622306e-03 -4.74755764e-01  6.60573915e-02 -3.91549319e-01 -2.28808194e-01  7.22018033e-02 -2.62370706e-01  1.37448817e-01 -1.21924870e-01 -2.06284150e-02  3.03571671e-01
 -2.88422078e-01 -1.77795112e-01 -2.36540630e-01 -2.07141146e-01 -3.58015925e-01  9.77020413e-02 -2.04211175e-01  5.97992912e-02 -4.62262612e-03 -7.41422996e-02 -5.34812920e-02 -7.52734914e-02
  1.37406603e-01  8.47922172e-03 -2.90395945e-01  4.80136648e-02 -6.70856014e-02 -1.74611151e-01  1.65288299e-01 -2.13615987e-02 -1.03105530e-01 -7.03537511e-03  2.00940087e-01 -1.87754184e-01
  1.75979808e-01  2.25634836e-02 -1.75228626e-01 -3.25507879e-01  2.16671482e-01 -1.88719258e-02 -1.96390543e-02 -3.38791758e-01 -7.13932067e-02 -9.27352998e-03 -2.13484436e-01 -1.73489321e-02
  3.10350042e-02 -3.38427693e-01  1.73924059e-01 -8.59526172e-02 -4.50457186e-01 -2.67417729e-01 -2.59069651e-02 -2.36574993e-01  1.63939670e-01  1.21537127e-01 -4.05580938e-01 -4.62360948e-01
 -3.93527985e-01 -2.33661890e-01 -3.03726792e-01 -1.17048971e-01  6.20770678e-02 -1.05013430e-01 -4.36309457e-01  5.75995026e-03 -3.27612519e-01 -3.33603561e-01  4.64017279e-02 -3.45230073e-01
  9.23917219e-02 -4.04320985e-01  1.31499441e-02  4.44731772e-01 -4.39023435e-01 -6.39179945e-01 -9.38322544e-01  1.25294611e-01 -4.44120407e-01  3.58127467e-02  6.87892549e-03  2.91655451e-01
  2.31477901e-01  8.69687647e-02 -2.22904801e-01 -4.71963771e-02 -6.08283430e-02  4.59867753e-02 -9.89140123e-02  3.45763080e-02 -2.27648944e-01 -3.45353961e-01  9.16513354e-02  9.67716351e-02
 -1.03640847e-01 -2.98781749e-02  8.76459479e-02 -3.68943095e-01  1.49318814e-01  1.46852747e-01  1.83434412e-02 -3.29188585e-01  1.06214378e-02  3.10440600e-01 -1.15565017e-01  3.26178163e-01
  3.76069546e-02  6.46244735e-02 -2.40916446e-01 -1.22272797e-01 -5.96018955e-02 -2.56284744e-01  1.04200862e-01  1.34570569e-01 -2.32676551e-01 -4.99483138e-01  2.10293178e-02 -5.17092705e-01
  1.92743652e-02  8.75640735e-02  7.70398751e-02 -4.22619283e-01 -3.60213667e-01  6.39797896e-02 -3.41802776e-01 -3.05240482e-01 -5.95799647e-02 -8.98466632e-02 -3.75479311e-01  1.97034851e-01
 -1.96578622e-01 -2.83612370e-01 -7.84666985e-02  2.76174257e-03  1.01362593e-01 -4.22658712e-01 -6.03923649e-02 -4.42412198e-01 -3.30989957e-01 -7.76276112e-01 -1.78148150e-01  3.70137431e-02
 -6.42558038e-02  2.04977691e-01  3.33317295e-02  4.99557108e-02 -3.02422166e-01 -7.11547062e-02 -5.61557896e-03 -3.09902187e-02  1.05791695e-01  2.30180584e-02  3.12213525e-02  2.94941925e-02
  3.85235064e-02  1.53783917e-01 -2.11798921e-01 -5.01966596e-01 -2.45028228e-01 -2.03813463e-01 -1.71315715e-01  2.76326872e-02 -1.80568159e-01 -3.78342539e-01 -2.01190993e-01  1.07916154e-01
 -1.42166615e-01 -3.43880355e-01 -5.58698028e-02  7.84055963e-02 -3.55096757e-02 -1.27214119e-01 -9.87275392e-02  1.81726426e-01  1.40797436e-01 -2.83116102e-02 -1.28397252e-02 -2.33355910e-01
  4.77624275e-02 -8.43230709e-02 -1.12423100e-01  6.00831304e-03 -2.33170670e-02  6.94041997e-02 -1.70467690e-01  1.61826368e-02 -3.52170952e-02  2.66812354e-01 -8.89075622e-02  4.51931432e-02
 -1.20278940e-01  5.44561669e-02  7.33926594e-02 -8.39862600e-03  2.71535162e-02  4.81894277e-02 -8.94586295e-02  1.40435502e-01 -8.05920642e-03  1.65769070e-01 -1.98068485e-01 -3.09810668e-01
 -1.49650574e-01 -3.51846032e-02 -1.89773172e-01 -3.60239744e-02  1.22861326e-01 -1.06249548e-01  1.96702708e-03  1.41480908e-01  6.02395870e-02  1.22029640e-01 -8.90957266e-02 -2.07757458e-01
  1.70001090e-02 -3.10513705e-01  8.23217109e-02  8.55792686e-02 -1.45473285e-02  6.67331964e-02  2.01450065e-01 -3.60764235e-01 -1.28475666e-01 -7.66731575e-02 -6.48928657e-02  1.14820182e-01
 -2.09439956e-02 -1.99991569e-01 -1.03528157e-01 -4.60007749e-02 -2.02183083e-01 -1.38885915e-01  2.69251373e-02  6.65460899e-02 -1.13038369e-01  6.73462972e-02  8.04470703e-02 -9.59414765e-02
  4.04316187e-02  2.03196064e-01 -1.67496562e-01 -3.52601647e-01 -3.08377355e-01  9.56627354e-02 -2.06434112e-02 -3.63114715e-01 -1.83069423e-01  4.00151424e-02  2.98159838e-01 -4.57749337e-01
 -3.40226710e-01 -1.72482684e-01 -3.54711831e-01 -1.44806616e-02  4.22232077e-02  8.11180919e-02 -3.72347027e-01 -9.63208601e-02 -3.85771483e-01  1.98157370e-01  1.50165275e-01  1.16888449e-01
  1.04031265e-01  1.14816710e-01 -5.74398749e-02  3.43223631e-01 -2.17892021e-01 -2.39957929e-01 -3.07315081e-01 -3.12889278e-01 -5.59639931e-01  1.65618122e-01 -3.01667243e-01  1.12350054e-01
 -3.93780600e-03  5.23536086e-01  5.43070212e-02 -3.36160243e-01 -1.58240050e-01 -1.28597021e-01  3.58936369e-01 -1.21407613e-01 -1.10799365e-01 -6.04875147e-01  1.93768427e-01 -3.03981453e-01
  8.18270221e-02 -1.07370153e-01 -4.31407057e-02  3.54775228e-02 -2.52311200e-01 -3.15017819e-01 -2.87744571e-02 -3.07123393e-01  1.08865090e-01 -8.05985928e-02  1.26477584e-01  4.65565056e-01
 -2.69638926e-01  9.51197594e-02 -2.25918949e-01 -3.44172180e-01 -1.07389271e-01  1.13704413e-01  3.19969021e-02 -3.20648938e-01  1.01396471e-01  8.46012756e-02 -1.51172116e-01  8.94147754e-02
 -1.57242224e-01 -2.55973667e-01 -1.11138523e-01  2.05792487e-02 -2.21522944e-03 -8.49334598e-02  1.62494332e-01 -6.48939610e-02 -1.86322838e-01 -7.83202350e-02  2.28792846e-01 -1.40503407e-01
 -2.51232721e-02  3.36367004e-02 -1.47344664e-01 -8.95904750e-02 -2.79375672e-01 -2.51163449e-02 -2.92104650e-02  6.99017048e-02 -5.35457022e-02  6.07914291e-02 -1.18282706e-01 -4.27219123e-02
  6.79447576e-02 -4.58013028e-01 -9.83541645e-03 -1.87017620e-01  9.94773805e-02  5.89613616e-02 -1.00253105e-01 -1.94478765e-01 -2.29247496e-01  2.61880875e-01 -7.01218426e-01 -1.13830425e-01
 -1.45416483e-01 -6.55856192e-01  6.74648359e-02  1.50371477e-01  1.64758578e-01  6.94898367e-02  2.98405856e-01 -1.71151802e-01 -1.87495560e-03  3.26693714e-01 -9.54913720e-03 -8.18640292e-02
  1.70377363e-02  3.82584274e-01 -1.57942593e-01 -1.30982429e-01 -1.95429578e-01 -2.46929020e-01 -2.35060140e-01 -1.06115133e-01 -3.49065155e-01 -6.62883967e-02 -1.20421678e-01  1.28979117e-01
 -3.13762575e-01  3.20179641e-01 -2.02067774e-02 -1.75182372e-01 -2.27205649e-01 -2.02083230e-01  3.52637768e-01 -2.44650990e-01 -3.64631712e-02 -3.71742129e-01 -3.10151041e-01 -1.08127199e-01
  1.29208401e-01 -1.32293358e-01 -2.30928466e-01  5.49730659e-02 -2.17025772e-01 -4.50382739e-01 -1.64877754e-02 -3.14781606e-01  5.96599095e-02 -3.30230504e-01  6.08642884e-02  4.89126325e-01
 -2.00738594e-01 -1.49748892e-01 -1.79218262e-01 -3.78160805e-01 -4.25908893e-01  1.44358978e-01 -2.17221882e-02 -2.86670506e-01 -1.88750699e-01  2.39848897e-01 -4.31764387e-02 -1.01994634e-01
  2.57327165e-02 -7.86301941e-02  7.74512812e-02 -1.66331187e-01 -2.46694207e-01 -5.52108169e-01 -2.12785434e-02 -1.97784558e-01 -8.97798315e-02 -2.65117109e-01  9.00956336e-03 -1.09271638e-01
 -1.01586506e-01 -3.76165599e-01  4.86375764e-02 -7.02953935e-01 -1.46986783e-01 -4.25643981e-01 -3.13658034e-03  5.06485820e-01 -5.55253699e-02 -1.57087475e-01 -1.54572368e-01  8.12307522e-02
 -4.45983887e-01 -2.43895780e-02  4.77561401e-03  2.37883348e-02  4.34389524e-02 -6.52123615e-03 -9.94245857e-02 -2.35261977e-01  2.92108878e-02 -2.51834214e-01  1.61397308e-01 -2.67303046e-02
 -9.76360310e-03 -5.76874577e-02  1.25065535e-01 -4.28408384e-01 -1.91935152e-01 -1.10151500e-01 -9.41544026e-02  4.59743105e-02 -1.97960120e-02 -2.13841453e-01 -2.09956542e-01 -7.96837509e-02
 -1.36271417e-01 -1.31752402e-01 -9.68946666e-02 -6.72444701e-02  3.34627591e-02  4.08494473e-02  1.06030010e-01  5.72478846e-02  7.92591181e-03  4.14249189e-02  1.26604497e-01 -2.80569762e-01
  1.05452500e-01  1.79823771e-01 -4.88297343e-02 -1.55512214e-01  7.69210905e-02 -1.27272546e-01  9.89817530e-02  1.81231782e-01 -1.90890599e-02 -3.29523295e-01  2.50010461e-01  5.28563224e-02
 -2.16549635e-01 -1.76274523e-01 -8.28363821e-02 -5.00633776e-01  8.20074603e-02  1.63211629e-01 -1.87726229e-01 -4.54861760e-01 -1.53178954e-02  2.02753648e-01 -1.26910195e-01  1.34780586e-01
  8.40963945e-02  2.26254791e-01  6.52009621e-02 -3.04841753e-02 -1.95024967e-01 -2.20475808e-01  7.00697601e-02 -3.96044068e-02 -1.37906875e-02 -8.82708840e-03 -6.74089789e-02 -1.55079484e-01
 -5.95309883e-02 -2.43339613e-01  1.90708712e-01  4.13780883e-02 -2.41961315e-01 -5.38349599e-02  8.89206156e-02 -7.78341815e-02 -1.17263973e-01  3.51593308e-02 -1.89273015e-01  2.05689013e-01
 -1.58622459e-01  3.79556008e-02 -1.43131375e-01 -1.66886345e-01 -3.08110714e-01 -1.27488539e-01 -1.05173057e-02 -8.95895585e-02  4.41921465e-02  1.79660544e-01  2.94646949e-01  9.00905430e-02
 -7.21416622e-02 -1.66446030e-01 -2.11291954e-01 -4.17384684e-01  2.30808139e-01  1.94926724e-01 -2.16359541e-01 -7.16064349e-02 -1.93715142e-03 -7.06476644e-02  8.40717331e-02  9.30038989e-02
 -1.46020859e-01 -2.08915114e-01  2.49222443e-01  3.60823609e-02 -5.36101684e-02 -5.27216792e-02  1.11924373e-01 -3.83610249e-01  1.47636458e-01  5.79364561e-02 -5.43875583e-02 -6.09699376e-02
 -1.50699005e-01  2.00700670e-01 -1.85160309e-01  1.57603502e-01  2.25898717e-02  2.70089209e-01  1.77431852e-01 -1.67439505e-01 -2.58901179e-01 -2.14160472e-01 -1.84931643e-02 -5.49077950e-02
 -8.55459720e-02 -4.44921583e-01 -9.54057127e-02 -2.78203100e-01  1.90300360e-01  3.81856501e-01  1.86749607e-01 -3.54837060e-01 -5.56871653e-01  1.20856449e-01 -3.58207732e-01  3.38349538e-03
  5.65732270e-02 -1.43318206e-01 -5.17262936e-01  2.03660220e-01 -8.77992958e-02 -4.06978309e-01 -9.94453505e-02 -8.77993703e-02  3.26957732e-01 -3.75831336e-01  1.21889114e-02 -2.13377118e-01
 -1.75418213e-01 -5.65406978e-01 -1.66251153e-01 -1.83198392e-01 -1.42916337e-01  2.67765403e-01  2.76457638e-01  1.01057276e-01 -1.03749959e-02  1.51696578e-01 -2.25151144e-02  6.37441352e-02
 -2.31973194e-02 -1.96613342e-01  2.87016124e-01  7.08870739e-02  4.02717814e-02  1.32129893e-01  1.58945039e-01 -4.80384454e-02  5.37688211e-02  5.30929193e-02  1.59022421e-01  1.82177693e-01
  8.88644606e-02 -9.78593808e-03 -2.49329984e-01  1.21407054e-01 -2.72416085e-01  5.82285784e-02  8.41904711e-03 -9.51740742e-02  1.96272302e-02  1.93724781e-01  1.66668698e-01 -2.25528523e-01
  1.67433992e-01 -1.64465040e-01 -7.28823692e-02 -1.45521984e-01  1.75213218e-01  1.69811904e-01 -1.94826853e-02 -2.32754827e-01 -1.34170026e-01 -5.90224504e-01  3.82293999e-01  5.53287938e-02
 -6.61884844e-02  6.62248582e-02  2.94500262e-01 -5.27391076e-01 -3.00931603e-01 -9.76508558e-02 -9.13153440e-02  9.86777917e-02  1.10638991e-01  1.18010364e-01 -4.90380526e-02 -1.32755145e-01
 -2.82450378e-01 -5.44597581e-02 -1.93876401e-02  8.92798528e-02 -4.77497578e-02  1.06572464e-01  4.78579253e-02 -5.96328340e-02  1.32376581e-01  3.76579203e-02 -2.57659525e-01 -3.59028578e-01
 -1.40514225e-01 -3.40684503e-01 -1.32167354e-01  1.78132039e-02 -1.29030319e-03  1.62358552e-01 -5.13523221e-01 -3.30578506e-01 -2.29800344e-01 -2.85418600e-01 -6.33798093e-02  1.03678800e-01
 -3.04594468e-02  3.34979147e-02 -4.93710116e-02 -3.99108976e-01  1.47539705e-01  1.96556952e-02 -6.15679845e-02 -2.92165905e-01  2.74947196e-01  5.79193942e-02 -1.56007960e-01  5.93852885e-02
 -2.73755312e-01 -4.12166893e-01 -4.88322884e-01  2.19042465e-01 -4.14955288e-01 -6.37180582e-02  2.15248451e-01  1.98045209e-01  1.70466676e-02  2.14866936e-01 -7.04248920e-02 -1.45864710e-01
 -1.30247369e-01 -4.63977903e-01  2.98111558e-01  3.37020569e-02  1.40792146e-01  1.39411688e-01  2.38894016e-01 -5.29738069e-01 -1.38676032e-01 -1.90903857e-01 -2.14571338e-02  1.51148230e-01
  1.47161514e-01 -1.70305729e-01 -2.37551406e-01 -3.80389690e-02 -3.41558576e-01  6.06416613e-02 -3.02043483e-02  1.57620698e-01  9.36538726e-02  2.70758480e-01  1.65672898e-01 -2.31556334e-02
  4.85078096e-02  5.76684810e-02 -2.44833469e-01 -6.08256638e-01 -2.43890539e-01 -1.23859167e-01 -3.36342379e-02  3.21281642e-01 -1.85535550e-01  1.49561197e-01 -3.87631595e-01 -3.62813085e-01
  2.16121003e-02 -1.87066644e-01 -2.44307712e-01 -1.52296722e-01  9.83681679e-02 -1.02794357e-01  3.65659893e-01 -3.96677256e-02 -2.50433534e-01  3.29151354e-03  3.77180539e-02  1.19344220e-01
 -1.41629567e-02  8.76686051e-02 -6.64182007e-02  2.17484254e-02 -1.82896718e-01 -4.18750018e-01 -3.92311662e-01 -1.14480577e-01 -2.70774262e-03  3.31945457e-02 -3.34418416e-01  1.32414307e-02
  8.90752599e-02  1.22588232e-01 -4.51267362e-02 -1.16994210e-01 -9.14202407e-02 -3.31251264e-01  1.70481458e-01  4.73921895e-02  9.11330655e-02 -1.09150946e-01  4.34048846e-02  1.16909787e-01
  2.93928711e-03  1.78753227e-01 -7.15600923e-02 -2.67819241e-02  2.24245921e-01  1.35753706e-01 -9.83294919e-02  3.24399187e-03 -1.49594456e-01  1.78410709e-01 -7.76784495e-02 -4.71594572e-01
 -1.58312432e-02  2.82671377e-02  1.21896543e-01 -2.13571250e-01 -3.59480418e-02 -2.32686192e-01 -2.88533196e-02 -3.85950625e-01 -4.51077491e-01  1.81105301e-01 -9.98538062e-02 -1.21929355e-01
 -2.87190787e-02  3.64246249e-01 -9.19213891e-02 -2.60051489e-01 -1.97160155e-01 -4.50433753e-02 -5.05944192e-01 -2.46129751e-01 -1.55275971e-01 -2.47883365e-01 -1.45487919e-01 -7.01573938e-02
 -1.41749054e-01 -3.80262315e-01 -7.66885504e-02 -3.67036402e-01  1.58612579e-01 -2.74251580e-01  2.62734666e-03  7.02957571e-01 -2.42092505e-01 -4.43209291e-01 -2.47484043e-01 -1.18833203e-02
 -2.70707399e-01  1.69674411e-01  1.72185138e-01  2.60698587e-01 -1.71300665e-01 -2.90367799e-03 -1.02810591e-01  6.65219650e-02  2.17543930e-01 -3.14513385e-01  1.05759814e-01 -1.97304301e-02
 -3.77173745e-03  1.78648472e-01 -1.36941180e-01 -3.67305994e-01 -2.47523770e-01 -2.82810301e-01 -2.70265430e-01  1.04512841e-01 -8.75401273e-02 -2.96841115e-01 -8.21237788e-02  9.32068080e-02
 -6.65104985e-02 -1.32250860e-01 -1.32522315e-01  2.90370472e-02 -2.15539243e-02 -5.58898337e-02  2.26607807e-02  9.30438936e-02 -1.11359796e-02  1.53858857e-02 -2.68989969e-02 -1.15522437e-01
  1.51588544e-01 -1.36189105e-03 -6.13140278e-02 -1.05336599e-01 -1.02791339e-01 -1.53745025e-01 -5.54067716e-02 -4.08135392e-02  6.58734292e-02 -8.58301371e-02  1.43193394e-01 -3.89813185e-02
 -1.67047426e-01  7.46679381e-02  2.57300854e-01 -9.69873071e-02  7.22532123e-02  1.66175380e-01  3.65075395e-02 -7.93054774e-02 -3.10900677e-02  4.69489358e-02 -1.10341780e-01 -9.21145640e-03
  2.43643690e-02 -3.59240966e-03 -4.23958041e-02  6.78577796e-02 -3.79834138e-03 -4.25875634e-01 -1.22636758e-01 -6.80287778e-02 -1.03122324e-01  2.12254956e-01 -9.85237509e-02  1.98101178e-01
 -4.70360704e-02  1.51720926e-01  1.94705017e-02 -2.84910891e-02  5.05173281e-02  1.05612807e-01  8.40324163e-02 -2.85252124e-01 -2.04580083e-01 -2.74692535e-01  1.52263880e-01 -7.31267631e-02
 -3.33091587e-01 -1.20196946e-01 -8.37678984e-02  2.21611336e-02  2.38725513e-01 -2.70248838e-02 -1.09990075e-01 -1.67413652e-01  4.42818552e-02  1.35098875e-01  9.19562113e-03 -2.22022474e-01
  6.50680661e-02  3.83464813e-01 -4.88039330e-02  9.23750177e-02  5.41306138e-02 -5.58891743e-02 -1.50531873e-01  9.08440631e-03 -7.27475807e-02 -5.77917814e-01  1.20029658e-01  3.96495648e-02
 -3.63457715e-04 -2.25064550e-02  6.36053234e-02 -1.66479573e-01 -2.28535384e-01 -2.62949299e-02  4.42157090e-02  6.37804344e-02 -2.85974257e-02 -2.58529987e-02 -3.08539510e-01  1.50753036e-01
 -1.27154872e-01  2.83608913e-01 -1.97099850e-01 -1.07866928e-01  7.12244213e-02  1.13055415e-01  2.98095316e-01 -2.92614251e-01  1.79688260e-02 -1.04604833e-01 -2.57670730e-01 -7.34614015e-01
 -2.39137989e-02 -4.76319045e-01 -2.86880066e-03 -1.89642131e-01  3.72310840e-02  1.70804098e-01 -4.74817306e-01 -1.88524634e-01 -2.97264792e-02  4.70136218e-02 -2.14201882e-01  1.45631209e-01
  1.41320616e-01 -1.06793299e-01 -9.38182250e-02 -4.10464138e-01  5.88419065e-02  2.38952357e-02  1.07744403e-01  4.30049263e-02  1.26437679e-01 -3.07953894e-01 -1.30163133e-01 -3.28013569e-01
 -3.85042369e-01 -3.81957769e-01 -7.31319964e-01  3.43363702e-01 -9.63126943e-02  3.82383689e-02  2.99608052e-01  1.01408496e-01 -4.09933478e-01 -1.87815785e-01  2.29990613e-02 -9.48810130e-02
  3.04148108e-01  2.86132935e-02  7.12263435e-02 -3.01491261e-01 -3.68907869e-01  7.31620863e-02 -6.02710426e-01 -2.77264029e-01  9.73848440e-03 -9.04781371e-02 -3.95058185e-01  2.43331328e-01
 -4.73112911e-01 -9.26505148e-01  7.98414275e-02  1.49901509e-01  2.77985394e-01 -3.92596573e-01 -9.10729468e-02 -3.68291974e-01 -1.29965201e-01 -4.18583065e-01 -2.42403224e-01  2.77891140e-02
 -5.15787899e-01  5.30865967e-01  7.70731047e-02 -1.00439288e-01 -5.98754287e-01  1.99778661e-01  2.83806510e-02  1.81599528e-01 -5.32786906e-01  2.81107634e-01  1.53282493e-01 -4.51531380e-01
 -2.28967637e-01 -5.23090780e-01 -5.10645270e-01  1.90133840e-01  2.87027913e-03 -7.82992095e-02 -2.23180547e-01 -7.59939924e-02 -5.71175873e-01 -2.24796757e-02  2.40167067e-03 -7.59401917e-01
  3.88886631e-01 -4.45993602e-01  6.16698004e-02  9.81162935e-02 -2.49459565e-01 -2.34223321e-01 -3.11950266e-01 -7.97179267e-02 -1.90937921e-01  2.59153754e-01  1.68848947e-01 -1.26689926e-01
  8.56957119e-03 -1.41416639e-01 -9.60945413e-02 -6.92196339e-02 -7.81186894e-02 -6.25983104e-02 -1.34075478e-01  7.05308020e-02 -6.13659322e-02 -1.08096689e-01  1.29622847e-01  2.16728803e-02
 -5.36112040e-02 -5.69013543e-02 -9.02022347e-02 -1.40448719e-01  1.18583534e-02  3.64367180e-02 -9.84956622e-02 -1.02056511e-01 -2.13490367e-01  5.61210103e-02 -3.84765528e-02 -3.64547670e-01
 -7.92988762e-02 -1.35978520e-01 -3.30234244e-02  1.45511672e-01  7.13852048e-02 -5.49017966e-01  1.52189463e-01 -1.64221555e-01 -2.07695782e-01 -1.74054503e-01  8.46073925e-02 -4.18721080e-01
 -1.18781939e-01  4.69905287e-01 -2.05098152e-01 -5.38150787e-01 -4.50510800e-01  2.93355174e-02 -2.00824216e-01  6.39733672e-02  1.20316960e-01 -8.50102454e-02 -5.15914634e-02 -2.50196457e-01
 -1.34745523e-01 -2.92909861e-01  2.15580612e-01 -3.62389952e-01  2.61780739e-01 -2.32814640e-01 -1.57239717e-02  1.36078283e-01 -2.16348022e-01 -4.15618569e-01 -4.28398550e-01  2.06651539e-01
 -5.23697197e-01  1.30355999e-01  2.57064372e-01  6.56528473e-01  1.69298038e-01 -7.81663433e-02 -1.42763600e-01  1.26970159e-02 -1.01935439e-01  1.76290609e-02 -8.13627914e-02 -2.27600429e-02
  1.13030270e-01 -1.57141820e-01  1.80403531e-01  2.76115630e-02 -4.63292897e-02  1.53815106e-01  2.28171051e-02 -4.87256497e-01  2.19028935e-01  2.05787614e-01  6.59494428e-03 -8.43026862e-02
 -9.20657143e-02  1.80947110e-01 -1.61108449e-01  5.60526503e-03  6.75275996e-02  7.90985525e-02 -2.48017505e-01 -5.89224696e-02  1.94132820e-01 -2.26136833e-01  7.66952112e-02  1.17569663e-01
 -6.27682269e-01 -3.26523721e-01  1.77089162e-02 -1.93478748e-01  3.10469210e-01  2.68883020e-01  8.51953849e-02 -4.35607493e-01 -4.50755298e-01  2.07416400e-01 -5.08796751e-01  3.01813129e-02
  1.32965744e-01 -3.40770781e-01 -2.13418677e-01  9.77387354e-02 -2.02247977e-01 -5.63746214e-01 -3.49507220e-02  2.22637966e-01  2.26328045e-01 -3.63935024e-01 -6.12813197e-02 -2.78139226e-02
 -2.12647319e-01 -6.58925176e-01 -4.02054608e-01 -6.53417930e-02 -5.22901356e-01  3.40249598e-01  8.32261518e-02  3.04821223e-01 -2.94937968e-01  2.27538496e-02 -1.58681273e-01  3.27972800e-01
  1.24571405e-01  1.23269148e-01 -5.64505532e-02 -1.37943715e-01  2.74697877e-02  4.09120917e-02 -1.70239329e-01 -4.19767320e-01 -2.91421711e-01 -3.58754277e-01  1.79729119e-01  4.88629602e-02
 -2.33268797e-01 -2.97979087e-01 -9.82181653e-02  1.72757536e-01 -1.61098793e-01 -1.27612025e-01 -4.46643308e-02  5.90448864e-02 -9.36381742e-02 -1.73159122e-01 -1.03989556e-01  9.57172178e-03
  1.04593463e-01 -9.51366648e-02 -5.40364794e-02  2.83656090e-01 -3.82648632e-02 -2.63226360e-01 -1.34181872e-01 -7.55983219e-02  2.88125455e-01  4.53006364e-02 -2.55154461e-01  1.90927181e-02
 -9.92140174e-02  3.97096165e-02 -9.39820986e-03 -5.00931777e-02 -8.81330073e-02  2.46079527e-02 -9.62829590e-02  7.91648850e-02  2.89779976e-02  1.43018618e-01 -3.93375121e-02  2.28077456e-01
 -9.09991562e-02 -2.18620766e-02 -1.45343944e-01 -6.72034249e-02 -2.02757850e-01 -2.94368039e-03 -2.60392904e-01 -5.48944734e-02 -2.25518346e-02 -1.13373309e-01  1.36687025e-01  1.48871645e-01
  3.69597562e-02  2.30402499e-01 -1.24013359e-02  2.68722624e-01 -2.22867262e-02 -9.09705609e-02  9.11045149e-02 -6.45939037e-02  1.43769488e-01 -3.81995109e-03  6.27355129e-02 -4.28293169e-01
 -2.94582516e-01 -2.11701706e-01  1.27611727e-01  1.55695349e-01 -2.73737013e-01 -1.86592773e-01 -1.46222427e-01  1.33597687e-01 -1.91551223e-01  8.60912725e-02 -1.11919390e-02 -5.83124682e-02
  1.39205791e-02  1.45314783e-01 -1.61489975e-02 -6.90351576e-02  1.05069958e-01  1.68058112e-01 -3.85090053e-01 -2.92713568e-02 -5.52242398e-01  2.42681071e-01  3.20341587e-02  2.81821191e-02
 -4.95701611e-01  1.39805421e-01  1.70468614e-01 -5.26948690e-01 -2.53259838e-01 -4.89235014e-01 -4.84752059e-01 -1.57446429e-01 -9.27018449e-02 -6.52389750e-02 -2.18546480e-01 -2.38220349e-01
 -3.70577306e-01  1.48315132e-01  1.30448490e-01 -5.64553380e-01  4.57611501e-01 -3.17465156e-01  4.65264581e-02  2.27120876e-01 -3.08095872e-01 -2.44718656e-01 -2.31903106e-01 -1.95235312e-02
 -4.60973382e-01  2.71277040e-01  5.26271723e-02 -3.35755557e-01 -1.02956466e-01  7.29859412e-01  9.20949504e-03 -2.55056530e-01 -4.59813893e-01  6.14349134e-02  2.74756223e-01 -2.99003184e-01
 -3.53950858e-02 -6.66888893e-01  1.45995855e-01 -2.61885405e-01 -4.40220833e-02 -1.47170648e-01  1.64925247e-01  4.69079949e-02 -3.41702074e-01 -5.34403265e-01  8.77167378e-03 -9.80281353e-01
  2.84000635e-01 -1.97714210e-01 -9.60898586e-03  1.66171342e-01 -1.62997648e-01  2.42275715e-01 -2.61389345e-01 -2.84615189e-01 -2.85001043e-02  3.14162880e-01 -9.48057175e-02 -1.23470895e-01
  1.29445851e-01  5.65881766e-02 -2.29433283e-01  8.61339420e-02 -2.89770335e-01 -4.87844586e-01  1.50878325e-01 -2.45468132e-02  7.71422461e-02  2.60963030e-02  1.44104123e-01 -3.46378535e-02
 -1.47207588e-01 -1.56861860e-02  2.47060850e-01 -7.87247419e-02  6.38651624e-02  8.77055228e-02 -1.81609809e-01 -4.96131461e-03 -4.47598845e-01  2.32486501e-01 -1.39926836e-01 -1.69315152e-02
 -2.30986699e-02  1.42229311e-02  7.20364451e-02  5.56042120e-02  7.14799240e-02 -3.84400040e-01  1.90975815e-02 -6.49847209e-01  1.79941267e-01  1.81592740e-02 -3.12118791e-02 -4.01230723e-01
 -3.06865275e-01  2.12085843e-01 -4.29215491e-01 -1.77503347e-01 -1.21492907e-01 -8.78684282e-01  1.59497634e-02  4.26226109e-02  5.85969314e-02  1.85426772e-01 -2.79502928e-01 -5.54250717e-01
  3.21426004e-01  3.19098026e-01 -4.82492559e-02 -7.10526168e-01  4.83254753e-02  1.81811720e-01 -1.80862874e-01 -2.42321581e-01 -2.36350447e-01 -1.97265461e-01 -3.02830487e-01  1.02445483e-01
 -2.81656802e-01 -1.27415359e-01 -5.47916628e-04 -1.79961666e-01 -1.81535989e-01  5.61205924e-01  6.96315467e-02 -7.24748001e-02 -6.08462512e-01  9.37754214e-02  2.28631198e-01 -4.52078164e-01
 -2.89744169e-01 -6.80689991e-01 -1.32128060e-01 -2.86147028e-01  9.44264513e-03 -2.61014193e-01  2.50006080e-01 -2.22051233e-01 -3.20018262e-01 -5.72342992e-01  9.56461728e-02 -8.42323542e-01
  5.06153643e-01 -4.51907873e-01  3.45633551e-02  3.54286283e-01 -2.70880252e-01  1.27499094e-02 -2.72396863e-01 -1.49413079e-01 -2.89231688e-01  3.13121408e-01  8.48642811e-02 -1.98215395e-01
 -7.13057667e-02  1.61515683e-01  3.55079249e-02 -1.45113021e-01 -3.83314490e-01  1.15266338e-01  3.68182585e-02 -2.39939526e-01  4.68489416e-02  4.52442653e-02 -7.33555704e-02 -1.80672511e-01
 -1.12356998e-01 -3.53211641e-01  3.89161795e-01 -3.28138828e-01 -6.73387423e-02 -4.34122443e-01  9.36567113e-02 -3.69947076e-01  2.33128443e-01 -1.89358249e-01  2.93543153e-02  6.64564893e-02
 -5.50194457e-02 -2.63538957e-02 -8.23605731e-02  2.92752296e-01 -1.15792088e-01  1.32735437e-02 -5.07871481e-03  1.22347705e-01  6.27879053e-02  1.61179408e-01 -3.75752114e-02  2.46264249e-01
  1.61403120e-01 -4.86120433e-02  1.27357498e-01  8.15139338e-02  6.42845407e-02 -3.96369472e-02 -4.30601873e-02 -2.16913521e-01 -2.96547353e-01 -1.17788620e-01  7.37419873e-02  2.26136714e-01
 -2.52490193e-01 -1.75065864e-02 -7.64384940e-02  1.05432436e-01 -1.33783937e-01  9.97053757e-02  1.87646076e-02 -4.63378206e-02 -5.21180779e-02  1.10672727e-01  4.22707163e-02  7.64903203e-02
 -4.01520208e-02  2.83053275e-02  5.32349385e-02 -1.39909104e-01  2.44700760e-01  3.82200330e-02 -8.80654082e-02  4.57751937e-02 -1.02169521e-01 -1.64404511e-02  7.17484802e-02  1.59389183e-01
  1.95110828e-01 -1.18680634e-02  5.75451106e-02  2.27549061e-01  6.81908056e-02  1.91080227e-01 -1.19452491e-01 -3.38047713e-01  2.42224425e-01  8.23784545e-02 -8.01377147e-02 -8.51736069e-02
 -1.00366168e-01  1.18023157e-01 -2.14223847e-01 -2.30789289e-01  6.62600324e-02  1.65291756e-01  6.84119314e-02 -1.18238647e-02  7.44326115e-02 -1.82928219e-01 -3.97828780e-02 -4.99387495e-02
 -1.94831371e-01  2.37785786e-01 -1.31468102e-01  1.75519839e-01 -1.22273713e-01 -9.78010073e-02  1.18538208e-01 -2.29809396e-02 -4.79972027e-02  1.41011029e-01 -5.10602705e-02 -2.77003080e-01
 -2.15508834e-01 -1.68816060e-01  1.02755778e-01  9.81253460e-02 -2.95811325e-01 -3.30309302e-01 -1.49098709e-01 -4.52775173e-02 -6.78060874e-02  8.29924941e-02  2.16853451e-02  1.65989831e-01
  7.74457604e-02  6.10698536e-02  1.28607258e-01 -1.72809958e-02 -1.21058919e-01  2.93218028e-02 -3.74381781e-01 -2.90545553e-01  8.75817984e-02  1.23129793e-01 -1.19492657e-01  1.85435832e-01
 -7.67964274e-02  1.40821353e-01 -1.01656960e-02  4.69470955e-02  1.57878429e-01 -9.14868787e-02 -3.00054904e-03  1.33813128e-01  1.00529335e-01 -2.08418835e-02  1.18963443e-01 -5.53059161e-01
  9.12874788e-02 -1.42911654e-02 -7.02515915e-02  1.44256111e-02 -4.85639907e-02 -1.24837197e-02 -1.94380701e-01 -2.35478148e-01  2.79100705e-02  9.85626802e-02  1.90978631e-01 -3.20676714e-03
  1.11700468e-01  9.69264249e-04  2.54547447e-02  1.95957094e-01 -2.04926953e-01 -3.51753116e-01 -1.47035047e-02 -2.57506043e-01  4.95157450e-01  5.78927815e-01 -3.08722913e-01 -1.29611611e-01
 -3.61274987e-01  1.66420713e-01 -4.94635612e-01  1.64167657e-01  7.22195655e-02 -5.95079176e-02 -6.58019960e-01  1.88177034e-01 -1.04151122e-01 -1.57629073e-01 -2.14175005e-02  2.19895855e-01
  2.88400203e-01 -3.56355071e-01 -6.47565648e-02  2.27648281e-02 -2.06863672e-01 -7.02653050e-01 -5.27451634e-01 -1.34965420e-01 -4.63371307e-01  3.76746297e-01  1.86769232e-01  6.52933836e-01
  1.16251327e-01  1.21161938e-01 -6.33219481e-02  1.23272657e-01 -6.84466362e-02 -4.39501166e-01  1.31845504e-01  1.91471167e-02  1.02375686e-01 -5.43438569e-02  4.05066535e-02 -5.14845967e-01
 -2.94929147e-01 -1.34000048e-01  1.93090737e-01  4.39397208e-02 -2.96969086e-01 -5.90220653e-02 -1.93174213e-01 -5.01836650e-02 -2.76429594e-01  1.32307693e-01 -9.63838324e-02  1.54781982e-01
  2.24237293e-02  2.75028706e-01  3.71465266e-01 -5.39660096e-01  1.47574902e-01 -2.04422817e-01 -4.59582090e-01 -5.38730800e-01  7.10934550e-02  3.89993489e-01 -4.45060134e-02  1.83956131e-01
 -1.98074564e-01 -2.70571172e-01  1.62507266e-01  1.79081827e-01  2.09363103e-01  2.05265388e-01  1.66175887e-01 -6.56944990e-01 -3.52624238e-01 -3.47891390e-01  1.29468054e-01  1.88433573e-01
 -2.64315516e-01  3.73623371e-02 -2.16300502e-01  4.65943338e-03 -1.38513178e-01 -1.31222494e-02 -1.24896884e-01 -4.82306369e-02  9.00531337e-02  2.52569199e-01  8.30697343e-02 -2.57191032e-01
  1.60189494e-01  5.64023331e-02 -6.66196883e-01 -2.59664059e-01  9.26461890e-02 -4.05932039e-01 -1.89813644e-01 -4.37696576e-01  3.16267349e-02  1.82433173e-01 -2.38084644e-01 -3.33512753e-01
 -1.05172627e-01  1.04259700e-01 -4.82220054e-02  3.16802949e-01  1.33714497e-01  4.81216684e-02 -2.95316905e-01 -6.31225288e-01  3.34946573e-01  9.18758214e-02  1.12634756e-01 -1.10906191e-01
  1.42436624e-01 -1.89888105e-01 -1.27761438e-01 -2.05762446e-01 -3.23263586e-01 -4.21506345e-01 -5.46160400e-01  3.46121788e-01 -3.00003767e-01 -1.38877794e-01  3.85845214e-01  2.15609729e-01
  3.55259888e-03  2.80849129e-01 -9.64930505e-02  8.88605714e-02 -1.96245313e-01 -2.17149228e-01  2.65566796e-01  1.74894691e-01  5.82464710e-02  9.68987402e-03  1.29655073e-03 -6.94928348e-01
 -2.97891438e-01 -3.72240126e-01  1.52144596e-01  2.79267192e-01 -2.67801583e-01 -1.87966466e-01 -1.05200991e-01  1.26663715e-01 -1.97843120e-01  8.66577998e-02 -1.37381241e-01  1.28670737e-01
  5.72054572e-02  2.81520337e-01  2.56305873e-01 -1.83848202e-01  2.07275867e-01 -6.63144281e-03 -5.46809614e-01 -3.53828460e-01 -5.02880104e-02 -4.50502545e-01  5.85634299e-02 -1.71884343e-01
 -3.45174044e-01  7.60414302e-02 -3.72368127e-01 -2.37409711e-01 -9.78840142e-02 -8.47735822e-01 -3.02437022e-02  1.28601072e-03 -1.55690312e-01  6.41203625e-03 -1.19563706e-01 -1.32726640e-01
 -1.67288668e-02  1.17451221e-01 -2.20430782e-03 -5.02169371e-01  1.93213612e-01  8.46594665e-03  4.40039150e-02 -1.71922490e-01 -6.51314780e-02 -5.32183528e-01 -2.61919469e-01  1.21393047e-01
 -2.18189567e-01  3.68259028e-02 -9.47835073e-02 -3.41372132e-01  1.71183661e-01  2.89483555e-03 -1.63193390e-01 -2.39100024e-01 -2.26394579e-01 -6.00039065e-01  1.16935037e-01  4.32143770e-02
 -2.24129781e-02 -1.95245206e-01  1.17168792e-01 -1.02817779e-02 -3.24552506e-01 -1.56932569e-03 -1.97159704e-02  1.42678365e-01  1.79009318e-01  1.25699773e-01 -2.80533612e-01 -1.42846897e-01
 -1.03067070e-01  1.08954266e-01 -8.57090428e-02  6.90293382e-04  1.86927486e-02  1.81437105e-01  1.77220494e-01 -2.78270692e-01 -6.37874752e-02 -2.41577625e-01 -1.98514909e-01 -9.86094773e-01
 -1.87103271e-01  9.29546431e-02  9.56658181e-03 -6.07473291e-02  9.42332596e-02  4.25253242e-01 -1.85310081e-01 -4.97432917e-01 -2.39495322e-01 -1.50125295e-01 -1.89948484e-01 -9.38146189e-02
  1.49771318e-01 -1.34051487e-01  1.09268203e-01 -1.25800818e-01 -1.40839061e-02 -3.35444748e-01  4.03592922e-02 -3.38114440e-01  1.69173315e-01 -4.07609999e-01 -1.06785618e-01  3.05346578e-01
 -2.57995486e-01 -2.00605825e-01 -6.55367553e-01  1.46945611e-01 -2.33344838e-01  3.23042184e-01  1.31268203e-01  6.52271032e-01 -5.58657125e-02  1.09677985e-01 -7.62226880e-02  1.13329761e-01
  8.76704790e-03  3.84945646e-02  5.09385429e-02  2.59368103e-02  3.01230010e-02  3.71931642e-02 -3.09674609e-02 -3.86319041e-01 -2.34597608e-01 -1.86571121e-01  7.29032978e-02  8.16442147e-02
 -2.00366393e-01 -1.67061523e-01 -1.70672387e-01  7.14506302e-03 -7.60778040e-02 -2.07522303e-01 -5.60208820e-02  9.92185250e-02 -7.95160513e-03  9.57912132e-02 -2.11894084e-02 -6.87774271e-02
  1.57062873e-01 -4.88417447e-02 -1.47260979e-01  2.93143839e-02  8.14388990e-02  3.32004949e-02 -7.49165118e-02 -7.60724396e-02 -3.89315724e-01 -2.45115533e-01  6.53408617e-02  6.10928796e-03
 -4.26840931e-02 -1.73828810e-01  2.48832330e-01 -1.66456457e-02 -2.15635195e-01 -7.31715932e-02  9.91850421e-02  5.77511033e-03  8.28151032e-02  4.14929725e-02 -6.09285124e-02 -7.73181468e-02
 -1.94130257e-01  2.23015733e-02 -2.16114476e-01  1.03403321e-02  4.73004244e-02  2.77901348e-02  2.44453046e-02 -1.01780400e-01  1.51102945e-01 -4.38913614e-01 -1.36697128e-01 -5.58190584e-01
 -3.82586896e-01 -1.12728313e-01 -4.81860004e-02 -3.29983205e-01  4.35672291e-02 -5.43777645e-01 -4.53766175e-02  9.65033472e-02 -2.86745936e-01  1.58799794e-02 -3.90412897e-01 -5.76750562e-02
 -1.74618766e-01 -9.19098873e-03 -2.14318529e-01 -2.55204260e-01 -3.02369177e-01 -2.79289603e-01 -1.59400314e-01  2.36975417e-01 -1.87332213e-01 -2.22139001e-01 -9.43808481e-02  1.36895075e-01
 -2.93483995e-02 -9.10811499e-02  2.52265930e-01 -1.14341542e-01 -3.28601629e-01 -1.03369460e-01 -2.88596511e-01 -3.17459732e-01 -1.03973545e-01  8.21997672e-02 -1.43002883e-01  1.39392987e-01
 -9.58937630e-02 -4.40474078e-02  1.12875737e-01 -1.36497751e-01  8.83274004e-02  1.66878179e-01  1.25297278e-01  2.08881438e-01  1.79316282e-01  3.24215949e-01 -1.00433290e-01 -1.90270275e-01
  2.93377088e-03  1.61066815e-01  6.93410728e-03  9.49513316e-02 -1.35732275e-02 -1.05020076e-01 -7.84796178e-02 -5.02398252e-01 -4.97215800e-02 -1.24788806e-01  2.61463840e-02 -9.95395482e-02
 -1.54263033e-02  7.86292832e-03  1.24933179e-02  1.98355064e-01  2.00851396e-01  8.90899003e-02 -1.34954587e-01 -1.12146199e-01  6.43248633e-02  2.64101028e-01  6.79805577e-02 -2.64117122e-01
 -4.03503656e-01 -3.07479531e-01  2.54460961e-01 -6.15319796e-02  2.79260743e-02 -2.76329517e-02  8.38084444e-02 -2.61035953e-02  1.79326981e-01 -5.07383561e-03  7.31923357e-02 -2.24712968e-01
  2.59594351e-01  1.21453010e-01  5.79406880e-03 -4.77254093e-01 -1.34821072e-01  2.14517396e-02 -4.31661941e-02 -3.78027737e-01 -7.66727477e-02 -2.79704705e-02  1.55652717e-01  5.43281659e-02
 -3.10445487e-01 -4.38782215e-01  4.25029173e-02 -4.45754588e-01 -1.02086127e-01 -2.67204851e-01 -2.37673074e-01 -3.65361035e-01 -2.89275110e-01  1.64590001e-01 -2.55603492e-01  1.58986598e-01
  1.05362147e-01  1.64098755e-01 -1.43280357e-01  1.00949511e-01 -3.42269450e-01  1.37228623e-01  8.84370953e-02  1.27322376e-01  2.98023596e-02 -5.61369732e-02  4.06646989e-02 -6.29577219e-01
 -1.79969922e-01 -5.13514459e-01 -2.58427054e-01 -1.02961920e-01 -8.11384916e-02  1.37454972e-01 -5.07003903e-01  3.65279205e-02 -1.72617525e-01 -1.75610125e-01 -9.65755060e-03 -3.48474473e-01
 -1.26106635e-01 -3.17640930e-01 -7.83379227e-02 -2.01265320e-01 -3.93591255e-01 -8.25352520e-02 -2.36814618e-01  4.80406523e-01  2.77932137e-01  4.10689205e-01 -2.78438747e-01  2.20193490e-01
 -3.32174569e-01  2.67741501e-01  1.46517128e-01 -7.01536089e-02 -3.40119272e-01  3.01718950e-01  3.99114527e-02  1.73375666e-01 -2.54342675e-01 -4.39285249e-01 -4.65226978e-01 -8.79689932e-01
 -2.71160871e-01 -2.43814960e-01 -4.99529094e-01  2.40358651e-01  5.72761856e-02  3.81064042e-02 -1.99534029e-01 -3.82213630e-02  2.04943717e-01 -1.07071243e-01  3.06488667e-02 -1.37409851e-01
  1.14447005e-01 -3.44913661e-01  4.78493609e-02 -2.58837268e-02 -1.22691847e-01 -1.00176446e-01  1.50063872e-01  1.30255044e-01  6.37175590e-02 -1.68522447e-01 -4.49072197e-03 -3.18565309e-01
 -9.06072706e-02  5.36122732e-02 -5.99195249e-02 -6.40869737e-02  1.50842480e-02  1.03037357e-01 -8.13794062e-02  8.83988887e-02 -1.08190998e-02 -1.48642987e-01 -2.81218886e-02 -7.25726485e-02
 -2.41472334e-01 -4.02782828e-01  4.16477062e-02 -4.70379561e-01  3.57108474e-01 -2.07224444e-01 -2.27815688e-01 -3.61340582e-01 -3.26360911e-01 -1.16261080e-01 -1.58719867e-01 -2.55125582e-01
 -2.59748042e-01 -2.95502812e-01  2.56136030e-01  1.48745731e-01 -2.69803941e-01 -3.47935349e-01 -1.76486641e-01 -1.58421189e-01 -1.60242602e-01  2.68367305e-02 -1.37251243e-01  2.10390314e-01
 -2.53977805e-01 -7.59156793e-02 -5.68467975e-01  3.55365604e-01 -2.23952591e-01 -4.68396172e-02  1.02023177e-01 -1.11139476e-01  9.22553092e-02  2.97248632e-01 -1.29513606e-01 -1.36941805e-01
  6.69035688e-02  8.51107091e-02  1.22356094e-01  1.94130745e-02 -2.40505591e-01 -6.44534051e-01  1.87003478e-01 -7.65930340e-02 -6.76204413e-02 -7.49555603e-02  9.26375687e-02 -6.28137663e-02
  7.42732733e-02 -6.80467188e-02 -1.92815632e-01 -4.70357299e-01 -5.58557324e-02  1.28303528e-01 -1.49095535e-01  2.31835619e-01 -4.48402687e-04  2.42068797e-01  1.62462845e-01 -2.59329021e-01
 -1.65752515e-01 -8.75478759e-02  1.63647935e-01 -1.40384715e-02 -2.81687200e-01 -5.97096980e-01 -6.35547861e-02 -9.45569873e-02 -1.13926627e-01  2.46092081e-01 -4.53218102e-01 -2.61259109e-01
  1.64610539e-02  1.56870902e-01 -4.31200832e-01 -1.61054447e-01 -1.90385617e-02 -1.26541212e-01 -1.15845270e-01  1.38560981e-01 -1.50533304e-01 -3.50368112e-01 -6.05940372e-02  1.58659518e-01
  2.11569726e-01 -1.51467785e-01  1.99132711e-02 -8.22652817e-01 -2.33676955e-01 -1.00483131e+00 -5.94775796e-01  3.72696191e-01  1.16886489e-01  9.11144093e-02  1.34882823e-01  1.88579515e-01
 -3.91057312e-01 -2.66115785e-01 -3.25493738e-02 -5.95076621e-01  1.16940066e-01 -2.44358078e-01 -7.94414431e-02 -1.41518533e-01 -1.83049500e-01  6.59124330e-02 -1.54735386e-01 -3.07915747e-01
 -2.68244386e-01 -2.62897789e-01 -1.60019353e-01  3.16295438e-02 -3.85773093e-01 -4.15798753e-01 -2.48783365e-01 -6.03923947e-03 -1.12996362e-01 -2.93361962e-01 -1.44574597e-01 -7.64352642e-03
  4.09972779e-02 -2.25535914e-01 -1.65842891e-01  2.73837358e-01 -2.07362965e-01 -9.82051194e-02 -2.09007010e-01 -5.73538363e-01  7.94849694e-02  3.61068584e-02 -1.18621141e-01  4.56561185e-02
 -8.76579657e-02  2.86522329e-01 -8.98484141e-02 -9.19601992e-02  2.32066549e-02  1.04542010e-01  1.90790385e-01 -6.59475178e-02 -9.05257165e-02 -1.55208549e-02 -1.06768630e-01 -1.22318849e-01
  1.58132747e-01 -9.76051390e-03 -5.20852059e-02 -3.98605280e-02  2.33870238e-01  3.92571241e-02 -9.82536376e-02 -1.60216197e-01 -9.70219225e-02 -2.47082803e-02 -1.28927216e-01  6.22379454e-03
  1.81770232e-02  1.42130047e-01  1.77446961e-01  1.13261528e-02 -3.92402172e-01 -1.51501819e-01 -1.42308429e-01 -3.74853730e-01  7.43399560e-02 -6.46078706e-01 -1.15029305e-01  9.79120508e-02
 -1.35799319e-01  4.74501364e-02 -2.25642353e-01  6.86314628e-02 -1.92903444e-01 -1.76493391e-01 -4.21207100e-01  2.40093973e-02 -4.29226547e-01 -1.87328085e-01 -1.81762084e-01  8.34317505e-02
 -3.74531329e-01 -2.67602116e-01 -1.56806886e-01  5.64923473e-02  8.27314928e-02  2.73454748e-02 -2.32829694e-02  8.12293440e-02 -2.17017591e-01  7.45127583e-03 -5.28550625e-01 -5.14110088e-01
 -1.59247871e-02 -3.53645310e-02 -1.02120936e-02  1.73596427e-01 -2.72946954e-01 -1.84409738e-01 -3.64375627e-03 -3.68385851e-01 -3.21150124e-01  1.60513118e-01  1.40081987e-01  4.30683196e-01
  2.14267209e-01  4.56016421e-01 -2.18914032e-01  5.07704429e-02 -1.94938958e-01  3.20590138e-01  2.08607942e-01  1.37551561e-01 -2.53680557e-01  3.72892141e-01  4.54976000e-02  4.21028696e-02
 -3.50029945e-01 -1.56981826e-01 -4.17379558e-01 -8.06549907e-01 -1.75835833e-01 -8.47329199e-02 -3.78651530e-01  2.27974817e-01 -2.06720740e-01 -3.36018056e-01  7.53463730e-02 -3.85221452e-01
 -1.53305307e-01 -3.06276113e-01 -7.94350076e-03 -4.96669948e-01 -2.59804636e-01 -8.06036666e-02 -1.94558650e-01  2.02581093e-01  3.37795019e-02  1.46824747e-01 -6.42458051e-02  5.12422621e-02
 -5.33418357e-01  1.05172008e-01  1.47351652e-01  1.32681370e-01 -2.73533076e-01 -5.68684824e-02  5.28467074e-02  2.82064974e-01 -1.84409752e-01 -2.43809640e-01 -4.96195048e-01 -7.49768555e-01
 -3.28767031e-01 -1.39528900e-01 -4.40086365e-01  1.02951288e-01  1.33400738e-01  1.15972780e-01 -3.72280627e-02  8.12322795e-02 -1.32713150e-02 -1.74604878e-01 -5.02732396e-02 -8.16539079e-02
  1.80309527e-02 -8.90357122e-02  1.23503275e-01  9.36806798e-02 -9.33945328e-02  7.89453685e-02 -6.58155680e-02 -8.63242820e-02  1.18032761e-01  9.23336819e-02 -3.76400836e-02 -1.33928820e-01
 -4.76319551e-01 -1.49756065e-03 -1.86180130e-01  1.40981168e-01  1.88963097e-02  1.41464798e-02 -5.31421117e-02  6.99779987e-02 -2.30814535e-02 -4.60054368e-01 -1.03845753e-01  2.40246542e-02
  3.81744951e-02  1.69418812e-01 -9.62674618e-02  1.42636925e-01 -3.57824266e-01  3.33488017e-01 -1.67839110e-01 -3.24425817e-01 -4.80667241e-02 -2.25958988e-01 -4.42275591e-02  1.23450272e-01
  8.21360871e-02  1.55243292e-01  1.74291924e-01  2.58249074e-01  8.90077278e-02  4.03741390e-01  3.81611697e-02 -3.00867498e-01 -5.49519202e-04  2.02726156e-01  1.34116039e-02 -5.52811027e-01
 -2.64714599e-01 -2.13098079e-01 -2.05872595e-01 -1.20601106e+00  1.62778750e-01 -1.28048286e-01  5.99079824e-04  2.21721575e-01 -1.31638303e-01 -5.58036208e-01  3.11189387e-02 -1.82295173e-01
 -2.72775203e-01 -3.63517225e-01 -2.06331983e-01 -2.58863121e-01 -2.26774201e-01  1.93427622e-01 -2.49232516e-01  3.13869178e-01  9.29998606e-02  2.16547236e-01 -7.15246052e-02 -5.03907539e-02
 -3.74811232e-01  1.42653078e-01  1.12300597e-01  2.59610079e-02 -3.76721889e-01 -1.18983023e-01  9.96976346e-02  1.50713652e-01 -2.84915239e-01 -6.21601999e-01 -4.21085924e-01 -6.38716042e-01
 -3.17704290e-01 -2.55072743e-01 -5.04368901e-01  5.86227663e-02 -2.79730618e-01 -2.75217056e-01 -1.22086689e-01 -3.24160069e-01  9.80322361e-02 -5.16561449e-01 -5.15929386e-02  6.09033555e-02
 -1.83286279e-01 -1.62617594e-01 -3.33754830e-02  9.82649042e-04 -3.18779163e-02 -4.40152548e-02  1.20359927e-01 -2.93017663e-02 -4.05621469e-01 -1.04944572e-01 -1.18567295e-01 -3.64657193e-02
 -4.98632282e-01  6.16861656e-02  1.44510502e-02  3.44347388e-01 -2.00196449e-03  1.61142677e-01 -5.42334281e-02  2.76408076e-01 -3.76556754e-01 -3.38957399e-01 -1.46185994e-01 -2.23967180e-01
 -1.81242332e-01 -5.39355278e-02 -1.69340715e-01 -3.60843569e-01  8.76684710e-02 -3.91989976e-01  3.99345309e-02  5.54723963e-02 -1.67886838e-01 -6.60414472e-02 -1.70699775e-01 -8.99099410e-02
 -2.80104876e-01 -1.84642762e-01 -5.29322401e-02 -2.83300560e-02 -2.17674389e-01 -3.90425503e-01 -2.12734565e-01  1.87549025e-01 -1.68804228e-01 -1.82991043e-01 -1.76813960e-01 -1.08740143e-02
  5.65297417e-02  9.35254917e-02  7.29094818e-02  2.20863715e-01 -1.60634577e-01 -3.52345146e-02 -1.99694082e-01 -5.55517018e-01  8.12196434e-02  2.63849258e-01 -1.15310512e-01 -5.04867658e-02
  8.37112591e-02  1.65899426e-01  2.59073317e-01 -4.17100079e-02 -2.59967953e-01 -3.48869234e-01  3.77940387e-02 -3.34480554e-01 -2.17862055e-01 -1.81372732e-01  1.16225548e-01 -1.33571913e-02
  1.41075358e-01 -2.43031736e-02 -2.50814170e-01 -2.48567671e-01  6.80267811e-03 -9.16814953e-02 -2.19316036e-01  5.72332256e-02 -3.72476727e-02  7.55104646e-02  2.74735719e-01 -2.41309375e-01
 -2.22748205e-01 -3.14853817e-01  4.31983359e-02  2.99004698e-03 -3.30163151e-01 -9.75434631e-02 -7.37869814e-02 -7.57951856e-01 -6.24296106e-02 -5.33235788e-01 -5.34071140e-02 -1.90768316e-01
 -7.08971545e-02  7.06151575e-02 -2.79413223e-01  5.23945056e-02 -1.25166148e-01  7.93768987e-02 -3.19900334e-01 -5.57294069e-03 -4.63487655e-01 -3.99352750e-03 -1.01093300e-01  1.49494469e-01
 -4.07816976e-01 -1.16652764e-01 -1.25158414e-01  4.24644537e-02 -2.27435827e-02 -1.64019018e-01  1.06496789e-01  2.66462237e-01 -2.31415212e-01 -3.03268522e-01 -2.38163024e-01 -1.19975232e-01
  8.69150832e-02  1.81050375e-01 -2.14269578e-01 -4.65406150e-01  1.13028079e-01  3.41155939e-02  2.74469614e-01 -6.66917711e-02 -1.71918541e-01 -1.80488259e-01  1.34072304e-01 -3.25036645e-01
 -2.09913000e-01 -3.23611677e-01 -8.01566169e-02 -1.78056285e-01  9.62178260e-02  5.15238680e-02 -9.50908959e-02 -4.84705307e-02 -8.51235166e-03  1.47235952e-02 -6.49116486e-02  1.11407869e-01
 -6.82597309e-02  2.95194268e-01  2.99959481e-01 -3.38622063e-01 -2.63190359e-01 -2.59070635e-01  9.51653793e-02 -1.59564596e-02 -3.18598688e-01 -4.79237497e-01  7.02523142e-02 -7.11188436e-01
  1.71035856e-01  5.52828670e-01 -2.88015068e-01 -3.26938212e-01 -2.23774284e-01  1.21192604e-01 -2.67860383e-01 -2.75483459e-01  1.05751036e-02 -2.29681566e-01 -1.51157632e-01  7.87463114e-02
  3.95039655e-02 -1.18451625e-01  4.38838080e-02  1.96371660e-01  3.19565386e-01 -3.31611574e-01  5.01631051e-02 -5.50529003e-01 -2.11490422e-01 -3.78470778e-01 -4.67591137e-01 -7.70301418e-03
 -1.82450324e-01  2.95420080e-01  3.34487379e-01  1.00915715e-01 -2.87938446e-01  6.68454394e-02 -2.14878246e-01  1.73575610e-01  4.74256240e-02 -1.82643026e-01  3.93141955e-02  1.48483738e-01
  1.48232564e-01  2.05108412e-02 -2.10267588e-01 -3.51979993e-02  1.43178357e-02  1.18886568e-01 -1.02312028e-01 -1.82700832e-03 -2.37483606e-01 -1.68360755e-01  9.45184473e-03  1.10364020e-01
 -1.53501838e-01 -2.74834633e-01 -1.37467787e-01 -7.82449096e-02  1.35345176e-01 -1.36188000e-01 -3.35056596e-02 -1.04158930e-01  1.36019155e-01 -1.53466105e-01 -6.86147669e-03  6.87147677e-02
 -2.71976143e-01 -1.45769715e-01 -7.98385870e-03 -3.85700643e-01  1.37925362e-02 -7.80810416e-01  1.37592450e-01  5.24896150e-03 -1.35635570e-01 -6.76903054e-02 -1.85237512e-01 -7.14196488e-02
 -1.62045315e-01 -6.97702467e-02 -6.16316497e-01  4.30042408e-02 -5.17340362e-01 -5.08217737e-02 -9.17444602e-02  1.35714009e-01 -4.41003710e-01 -2.73777485e-01 -3.27505544e-02  2.08142847e-01
  7.73151293e-02 -1.24622330e-01  7.93837532e-02  1.20660059e-01 -1.93423823e-01 -9.34140533e-02 -6.32564545e-01 -3.07980955e-01  6.70468882e-02  1.99064791e-01 -1.81014335e-03  2.25482479e-01
  1.68970361e-01  2.36385852e-01 -2.26326734e-01 -3.95738721e-01 -3.13064009e-01 -3.80466104e-01  2.23059878e-01 -3.28958742e-02  4.92724553e-02  2.94374600e-02  2.18472764e-01 -1.01169478e-02
  1.99800536e-01  9.77923870e-02 -6.22184686e-02 -4.76966202e-01  1.92900360e-01  3.03592116e-01  3.15661058e-02 -3.22771519e-01 -3.30386043e-01  2.14423999e-01 -1.05305716e-01 -2.17149053e-02
 -9.86981541e-02 -9.96136367e-02  2.37479687e-01  1.87547388e-03 -2.57402688e-01 -1.45483807e-01  2.73544015e-03 -6.82980657e-01 -1.00166969e-01 -6.70427442e-01  6.22833818e-02  1.18051402e-01
 -1.61217481e-01  1.19164623e-01  1.78943891e-02 -1.24237210e-01 -4.19066586e-02 -1.54521227e-01 -4.55683768e-01 -1.38218654e-02 -3.21423918e-01 -1.27133802e-01 -1.42962039e-01  1.85106128e-01
 -4.09878194e-01 -1.47985846e-01 -1.87762171e-01  2.45461971e-01  5.53234108e-02 -6.33177906e-02  1.17585994e-01  1.57464832e-01 -1.28089577e-01 -1.47663578e-01 -3.27889770e-01 -2.20477968e-01
  1.42994896e-01 -7.18391165e-02 -4.19551954e-02  1.60279125e-01 -3.71508241e-01 -1.60920531e-01 -3.11047941e-01 -2.56426662e-01  2.86469329e-02  7.89473765e-03 -9.59895998e-02  4.52936620e-01
  2.82682598e-01  3.27486157e-01 -6.35450780e-02  2.46735275e-01 -1.60981923e-01  1.97834745e-01  5.90793118e-02  5.54305017e-02 -1.84117913e-01  3.77482235e-01  6.36902452e-02 -3.18533510e-01
 -1.45404354e-01 -3.19754481e-01 -5.80530584e-01 -6.11404002e-01  2.63756365e-01 -5.17839566e-02 -2.21390456e-01  3.09428453e-01 -7.15131387e-02  2.95578856e-02 -1.74041186e-02  1.50684476e-01
 -1.32500872e-01 -1.14363670e-01 -1.16363661e-02 -8.89966637e-02  6.56047240e-02 -5.33900820e-02  2.79803760e-02  3.02042574e-01  2.12618247e-01  3.35830331e-01  1.76092852e-02 -7.33139962e-02
 -3.54470573e-02  2.22436681e-01 -3.06125656e-02 -3.45544307e-04 -3.05328071e-01 -7.78194889e-02 -1.86011836e-01 -2.15870842e-01 -1.17368117e-01  8.86023492e-02 -4.86905575e-02 -9.21520032e-03
  9.09559727e-02 -1.31099582e-01 -7.02910274e-02  1.66486099e-01 -2.67999381e-01 -3.96664709e-01 -1.29848957e-01 -5.08517146e-01  5.80975637e-02  2.03253239e-01 -4.16860133e-01 -3.81151706e-01
 -5.77930033e-01 -3.28314188e-03 -3.37406486e-01 -4.08959746e-01 -1.26463130e-01 -4.39881563e-01  1.49806187e-01  3.62621658e-02 -8.18710625e-02 -2.73115456e-01 -2.17585757e-01 -7.37448409e-02
  1.60585776e-01 -2.17724144e-01 -4.99860495e-02  2.39955604e-01 -4.30991083e-01 -1.88604206e-01 -3.94556403e-01  1.94765195e-01 -4.68650639e-01 -1.09776817e-01  8.37044269e-02 -1.18104041e-01
 -2.55480617e-01 -2.84717917e-01 -6.12645820e-02 -2.55138755e-01  1.47986040e-01 -5.77816308e-01 -3.78478691e-02 -6.12625442e-02 -7.30807409e-02  3.33050415e-02 -2.08828330e-01 -4.92246188e-02
 -2.64597803e-01 -2.20896050e-01 -1.91616669e-01 -1.17821366e-01 -4.29551840e-01 -3.34898204e-01 -2.08719760e-01  5.44773368e-03 -2.87736505e-01 -2.47938812e-01 -1.04218550e-01 -4.77393568e-02
 -1.18910611e-01 -2.86178174e-03 -9.62387025e-02  2.80859858e-01 -6.86769113e-02 -1.38100117e-01 -2.08862424e-01 -4.98225063e-01 -6.41639233e-02  1.40574053e-01 -1.25913396e-01  7.84154702e-03
 -3.18387151e-02 -3.51860195e-01  9.50531010e-03 -3.95230949e-02  1.59885120e-02 -8.35163668e-02  1.13945514e-01  5.80699407e-02 -1.44959018e-01  7.30923191e-02  8.81109200e-03  7.34542776e-03
  4.99279946e-02 -1.25159308e-01 -6.02716655e-02 -6.11120649e-02 -3.31481218e-01 -4.63486835e-02 -1.33822799e-01  2.39330605e-01 -3.32786478e-02  4.13234197e-02  2.35975184e-03 -1.28583452e-02
  1.27220541e-01 -4.14983034e-01 -6.78802431e-02  7.85459727e-02 -4.48761880e-01 -1.15268469e-01 -1.84473600e-02  1.00719975e-02  1.58455707e-02  2.17515919e-02 -1.82443753e-01 -1.09844264e-02
 -6.87096789e-02  7.68711492e-02 -3.34899753e-01 -7.17049092e-02  4.50505279e-02 -9.99658778e-02 -3.56856942e-01 -3.62728149e-01 -4.29415554e-01 -2.83565521e-01  3.73715088e-02  1.25852317e-01
  1.45794809e-01 -3.74505162e-01 -6.09132685e-02  1.84427798e-01 -1.37560084e-01 -4.14882183e-01 -2.51633883e-01  1.79079268e-02 -3.05737287e-01  7.21158013e-02 -1.83535233e-01 -9.44093466e-02
  2.45893076e-02  2.18034074e-01 -8.76653269e-02  8.96156505e-02 -2.91693181e-01 -2.49172412e-02  2.69526821e-02 -6.81650639e-02  2.16886252e-02  1.89251333e-01  1.45156205e-01 -3.31621990e-02
 -1.27157286e-01  9.83885378e-02  1.53278589e-01 -3.60929556e-02  5.60891032e-02  9.74210501e-02 -1.03825353e-01  1.83068916e-01  3.39702554e-02  2.15077519e-01 -1.98064730e-01 -3.65614980e-01
  2.28737667e-02  1.42340809e-01 -2.22526621e-02 -1.32519737e-01  8.08131509e-03  1.03252299e-01 -2.22312495e-01 -1.40191764e-01  9.28547829e-02 -1.32215768e-01  2.07325220e-02  1.76661447e-01
  2.57133842e-01  1.79093197e-01 -4.57657427e-02 -2.28351533e-01 -2.36082330e-01 -1.49408713e-01  9.99584496e-02  1.36055976e-01  2.05956846e-01  4.24526110e-02 -1.41443402e-01 -3.48995000e-01
  1.22788467e-01  1.51823014e-01 -4.29609185e-03 -3.69122982e-01  1.69409841e-01  1.61401063e-01 -1.10146277e-01 -5.50937295e-01 -1.02242067e-01 -2.45001856e-02 -2.31733277e-01  4.85845543e-02
 -2.98100859e-01  1.86791308e-02  2.44894072e-01  1.36705890e-01 -2.97691047e-01 -5.59447587e-01  3.52898836e-02 -2.35907987e-01  2.02732325e-01  2.90692784e-03 -5.76383173e-01 -2.85975844e-01
 -3.84796381e-01 -1.04248403e-02 -3.20015669e-01  1.60748243e-01  8.55409652e-02  4.43322957e-02 -5.89018166e-01  6.63790293e-03 -5.16174614e-01 -2.05437206e-02  5.74045070e-02  1.00528054e-01
  3.29177201e-01 -2.17735529e-01 -9.15837213e-02 -3.74461114e-01 -1.78273827e-01 -1.81979358e-01 -4.13958371e-01 -1.02760933e-01 -3.42598677e-01  2.83978760e-01 -1.24389611e-01  1.30550653e-01
 -2.80719042e-01 -3.26615274e-01  5.02836555e-02 -1.23396657e-01 -6.92391038e-01  2.23065615e-01 -2.23436728e-01 -2.63687283e-01 -2.54123747e-01 -4.18354422e-01 -1.67543739e-01  2.94483453e-01
  4.19904500e-01  2.70018369e-01 -9.89638418e-02 -6.92504970e-03 -1.17037795e-01  2.45399047e-02  2.18311816e-01 -2.23786160e-01 -5.85859790e-02  9.69962552e-02  1.35553591e-02  9.82595608e-02
 -2.10539877e-01 -3.26435655e-01 -5.01139343e-01 -3.86670530e-01 -2.32119665e-01 -3.13857019e-01 -3.36390078e-01  1.65062398e-01 -1.16156526e-01  3.78719866e-02 -3.21609378e-02  9.07408912e-03
  1.10995688e-01 -4.79073776e-03  4.31482494e-02  1.07372120e-01 -1.71686448e-02 -1.53263435e-01  1.10279759e-02 -1.11905143e-01 -3.81488860e-01  9.89607796e-02  2.73898274e-01  1.90033421e-01
 -9.01382193e-02 -9.51468870e-02 -8.56344700e-02 -1.23426378e-01 -3.57805789e-01  1.27792135e-02 -5.12722973e-03 -2.56704271e-01  2.87897117e-03  3.10273115e-02  6.98311850e-02  6.42341152e-02
  1.28817618e-01 -4.72519547e-01  1.13907002e-01 -2.36445561e-01 -1.25204146e-01 -4.12301064e-01 -5.62629029e-02 -3.11506212e-01  3.82710576e-01  7.30841234e-02 -1.17232285e-01 -1.54657841e-01
 -3.13196778e-01 -1.01046436e-01 -1.68308139e-01  4.29645106e-02  1.08440824e-01 -9.40232575e-02 -3.88767898e-01  2.53265142e-01 -3.42351973e-01 -1.93945199e-01  1.94843002e-02 -3.35528493e-01
 -1.61429211e-01 -3.85759443e-01 -2.99414210e-02 -3.38062756e-02 -1.79218113e-01 -3.42189252e-01 -4.99010116e-01  1.79239586e-01 -2.65873373e-01 -2.60592520e-01  5.30446358e-02  1.78503215e-01
  4.17817570e-02  1.62734389e-01 -1.48833990e-01  2.99814381e-02  5.67720830e-02 -4.19070423e-02  6.01994246e-02  1.86374068e-01 -5.90787865e-02 -2.46008381e-01  2.79460758e-01 -3.68701778e-02
  8.18794295e-02  7.84746651e-03 -1.92714436e-03 -2.28521451e-01  2.04659283e-01  1.76530421e-01  1.21735521e-02 -1.80133745e-01 -1.16921484e-01  2.11149722e-01 -1.24912120e-01  2.85495132e-01
  9.58551913e-02  2.06374690e-01  2.87882656e-01 -1.27166837e-01 -1.50084704e-01 -1.18065715e-01  1.86486170e-01 -6.64168298e-02 -2.80708671e-01 -3.55705351e-01 -3.00117601e-02 -4.94977385e-01
  2.12753594e-01  2.65618980e-01 -5.57760358e-01 -6.19880676e-01 -3.62208754e-01  5.31736277e-02 -2.87344962e-01 -2.35511079e-01 -1.24170072e-01 -3.31197441e-01 -1.53570980e-01  1.92121685e-01
 -1.36654422e-01 -2.62905329e-01 -1.14462532e-01 -5.86215891e-02  4.15758222e-01 -1.25406116e-01 -4.83494662e-02 -2.99943864e-01 -2.19161719e-01 -4.62019086e-01 -8.54986548e-01  4.54605892e-02
 -6.81083798e-02  3.14681292e-01  1.76589295e-01  1.58808827e-01 -4.55764502e-01 -1.04826748e-01 -1.98109940e-01 -3.54293942e-01  7.10724890e-02 -4.40501310e-02 -3.11425060e-01 -8.70455503e-02
 -1.18737645e-01  1.78087994e-01 -4.03594702e-01 -1.66835189e-01 -2.44678900e-01 -3.28161120e-01 -1.45658210e-01  1.33778080e-01 -4.55970794e-01 -4.28729713e-01 -1.44076973e-01  1.34794295e-01
 -4.22061868e-02 -2.33089179e-01 -1.97448313e-01 -2.63025239e-02 -1.12626832e-02 -2.98277140e-01 -3.76047269e-02  1.44507393e-01 -1.19177766e-01  1.49519980e-01 -9.07793492e-02  1.49316071e-02
 -5.97908814e-03  2.83289072e-03 -2.13609815e-01 -1.27048522e-01  2.16831625e-01  1.46597490e-01  5.66001609e-02 -6.69578910e-02  7.35237524e-02  5.62150627e-02  1.28352478e-01 -1.20713986e-01
 -1.95409790e-01  2.45911032e-02  4.33294252e-02 -2.45858599e-02  3.21306773e-02 -1.62564609e-02 -1.04109049e-01  4.22217138e-02  5.67385331e-02  1.40527278e-01 -1.21072203e-01 -2.05222890e-01
 -1.75852794e-02  9.39173996e-02 -4.51859757e-02  4.49169278e-02 -8.19911137e-02  1.14564262e-01  1.86297119e-01  6.57976791e-02 -5.38424015e-01  3.09295096e-02 -1.31891191e-01 -4.32051182e-01
  5.82895018e-02 -2.11774856e-01 -1.03216998e-01 -8.93259570e-02  3.26419845e-02  1.11586057e-01 -2.18645602e-01 -9.08610299e-02 -1.38536155e-01 -2.78593332e-01 -2.65523106e-01  1.66759476e-01
 -6.47332370e-01 -1.59478486e-01 -6.31977022e-02  2.04586804e-01  4.50427830e-03 -3.52444291e-01  6.32142555e-03  1.03379309e-01 -4.09484319e-02 -1.43110603e-01  4.37257672e-03 -8.26964714e-03
  2.85524167e-02  6.44939914e-02 -4.58709568e-01 -1.50538564e-01 -1.86813939e-02 -7.24450126e-02 -1.41493261e-01 -2.69899786e-01 -5.57283938e-01  1.06205083e-01 -3.87992382e-01 -4.40194875e-01
 -4.17038023e-01 -2.15907454e-01 -5.89159131e-03  1.90106466e-01  3.84897798e-01  2.18206093e-01 -1.29721314e-01 -2.23810568e-01 -8.58484432e-02  3.42550993e-01  5.12434095e-02  4.38732542e-02
 -7.14847771e-03  1.65371239e-01 -2.28401106e-02 -9.15106237e-02 -2.94612110e-01 -1.60981819e-01 -1.66546166e-01 -2.13690221e-01 -5.88305175e-01 -1.88326642e-01 -1.62462071e-01 -2.93783695e-02
 -3.23167652e-01 -9.89899486e-02  7.61648417e-02 -5.05283810e-02 -6.04244173e-01  4.51907180e-02 -7.79016390e-02 -4.47240859e-01 -1.63651556e-01 -6.12829864e-01 -4.56550896e-01  1.33253187e-01
  2.51580119e-01  1.77294105e-01 -2.00672954e-01  4.58481163e-02 -4.82893378e-01  7.42620751e-02  7.99138620e-02 -2.51712948e-01 -2.94848271e-02 -6.28923178e-02  2.86477543e-02  3.10201854e-01
 -2.95780689e-01 -3.89666349e-01 -4.14372265e-01 -3.48457515e-01 -2.77984023e-01 -7.81465471e-02 -3.55513752e-01 -2.68090144e-03 -1.14406189e-02  6.27444088e-02 -3.65907252e-02  7.04487339e-02
 -3.87025893e-01 -2.42575690e-01 -1.30576016e-02 -3.23898941e-02 -5.30930944e-02 -1.19189523e-01  1.34886563e-01  4.82765511e-02 -2.29022931e-02 -7.45420307e-02  2.20423326e-01 -5.29291965e-02
 -6.33455589e-02  4.51946333e-02 -1.65303409e-01 -1.85854942e-01 -3.67728770e-01  1.27343938e-01 -8.86057913e-02  1.45688862e-01  3.97817828e-02  4.65691090e-03 -4.35502362e-03 -5.12361750e-02
 -5.58428541e-02 -3.28203619e-01 -2.35796884e-01 -3.51256520e-01  1.77927792e-01  3.29036891e-01  2.61746626e-02  2.26645261e-01 -3.94915581e-01  1.28056943e-01  3.34572233e-03 -4.19689268e-01
 -1.44177392e-01 -5.67405760e-01  9.63846892e-02  9.30694267e-02  1.21126018e-01  2.40944102e-01  1.78239793e-01 -1.85311943e-01  9.87819433e-02  3.18806291e-01  7.07862824e-02 -7.13104308e-01
 -9.48948264e-02  5.12318194e-01  6.15490414e-02 -2.80208677e-01 -3.75314772e-01 -1.00216694e-01 -2.20670819e-01 -2.90589899e-01 -1.33815259e-01 -3.86364162e-02  1.23141676e-01  5.40209003e-02
 -3.89489144e-01 -5.07990837e-01 -1.50773665e-02 -1.75223791e-03 -6.41641676e-01 -4.11135517e-02 -5.30392885e-01 -3.54131907e-01 -1.83625817e-01 -3.56083721e-01 -4.66586024e-01  2.19810560e-01
  1.18496805e-01  8.92644152e-02 -3.54430377e-02 -3.17513227e-01 -4.15374845e-01  1.97232682e-02  1.21006280e-01 -2.50429273e-01 -1.45403817e-01 -1.12856947e-01 -5.45079671e-02  3.92483860e-01
 -3.43474656e-01 -5.43807030e-01 -5.10003090e-01 -2.99846381e-01 -2.90915757e-01 -1.56958237e-01 -2.39718109e-01  9.51618925e-02 -4.17044073e-01 -3.18421900e-01 -1.42348573e-01 -3.23671430e-01
  4.12034541e-02  8.08866136e-03 -8.85750353e-02 -1.30706847e-01 -3.19918573e-01 -2.65974849e-01 -3.43790084e-01  1.38030976e-01  2.82375067e-01 -8.62155408e-02 -3.49534810e-01 -1.32441774e-01
 -5.04152954e-01 -2.37186283e-01  2.77179759e-02 -3.52507681e-01 -4.33364242e-01 -2.42448896e-01 -1.11860275e-01  1.75358012e-01 -2.02890366e-01 -1.56742305e-01 -3.58693413e-02  2.73575723e-01
 -3.93263936e-01 -4.63561058e-01 -3.08339894e-01 -7.03740939e-02 -3.42495501e-01 -6.50616512e-02 -1.39241502e-01 -4.63427454e-01  9.19255912e-02 -7.52147799e-03 -1.05423242e-01 -3.93050052e-02
 -1.38825312e-01  1.49187133e-01 -2.40108967e-01 -1.41223684e-01 -1.42492607e-01 -3.02889556e-01 -3.01241642e-03 -3.95089127e-02 -5.39722264e-01 -2.65678346e-01 -8.26108158e-02  1.48688883e-01
 -8.41993839e-02 -2.73812115e-01 -5.73235005e-02 -6.69691339e-02  5.55261038e-03  3.24324593e-02  8.12182203e-02  1.98539272e-02  5.80255166e-02  1.08716181e-02 -1.39485613e-01 -2.53408879e-01
  1.99394077e-01  1.15260608e-01 -9.78405103e-02 -2.13839844e-01 -9.25954208e-02 -1.02948762e-01  1.31959930e-01  4.11984250e-02 -1.27240270e-01 -6.04130980e-03  1.84190318e-01 -3.25486772e-02
 -1.74618103e-02 -1.00031286e-01 -1.79901972e-01 -2.90521771e-01  1.63601249e-01  5.33862039e-02 -1.36121988e-01 -5.44922464e-02 -2.60769159e-01  5.10178246e-02 -2.68678144e-02  8.62521976e-02
  1.01117805e-01  4.13831882e-02  2.11280212e-01 -1.22326672e-01 -1.27412170e-01 -3.10794085e-01  3.75054590e-02 -1.36715537e-02 -2.74974495e-01 -2.26384088e-01 -1.11656919e-01 -2.66487330e-01
 -3.43308866e-01 -3.12205464e-01 -2.24441383e-02 -1.90678731e-01 -1.53244376e-01  5.12243249e-02 -2.85840362e-01 -1.26653969e-01  2.81961411e-02 -5.43774338e-03 -2.73117870e-01  1.31352963e-02
 -5.86883128e-01 -2.10598439e-01 -1.30846962e-01  1.32526577e-01 -1.20741352e-01 -1.45269722e-01 -9.61473063e-02  2.11330652e-02 -1.88799754e-01 -2.14355201e-01  1.21933728e-01  3.45633589e-02
 -2.68297374e-01 -7.40674660e-02 -5.89133620e-01 -9.43653062e-02  7.87546784e-02  8.95582139e-02 -1.83443233e-01 -1.64606243e-01  3.80987711e-02  1.44448742e-01  2.12139726e-01  1.43028900e-01
 -1.38356388e-02 -8.31734613e-02  2.16107935e-01 -3.26087177e-02 -4.34602425e-02 -5.56643829e-02 -1.97638765e-01 -5.45117915e-01  1.20766848e-01  1.70655146e-01 -1.13226146e-01 -1.96938053e-01
 -1.11054771e-01  1.89436041e-02 -1.47704512e-01  4.54223678e-02 -7.55111501e-02  1.45064965e-01  1.19781658e-01 -1.86106101e-01 -1.62318096e-01 -3.02434325e-01  1.63643539e-01  2.75675510e-03
 -4.63366285e-02 -5.92399299e-01  2.83258334e-02 -4.85786676e-01  4.76914227e-01  3.15918952e-01 -1.22602880e-01 -5.11329830e-01 -5.19377410e-01  1.20777160e-01 -3.18628997e-01 -1.68405890e-01
 -7.95249790e-02 -2.09434871e-02 -5.62804878e-01  1.22166574e-01  2.51621790e-02 -1.33115038e-01  3.28880697e-02  1.65278077e-01  5.35903335e-01 -3.23963642e-01 -5.92394732e-02 -3.42277974e-01
 -3.42637062e-01 -5.25802493e-01 -3.85574996e-01  3.61861810e-02 -3.15802485e-01  1.74390748e-01  5.21819174e-01  2.20390722e-01 -2.25668684e-01  8.51838216e-02 -1.98490843e-01 -5.65650873e-03
 -2.99956590e-01 -2.06804618e-01  1.09527573e-01  7.40028694e-02  1.11752629e-01  8.20613950e-02 -1.00657970e-01 -2.56211549e-01 -1.96751639e-01 -2.04036638e-01  1.83121622e-01  6.87750503e-02
 -5.34977853e-01 -2.40210816e-01 -9.05575156e-02  2.40668848e-01 -6.13455139e-02 -8.97869915e-02 -5.70066739e-03  1.57635406e-01  1.96861103e-02 -4.64674421e-02  1.51671588e-01 -2.96356112e-01
  7.85185099e-02  3.11448090e-02 -1.55136675e-01 -5.18553630e-02 -3.34837765e-01 -5.31888455e-02 -4.36583646e-02 -2.87134320e-01 -4.16764617e-01 -3.63547325e-01 -2.51107998e-02  1.08271517e-01
 -8.60875547e-02  1.64487585e-01 -3.87969822e-01 -1.39232054e-01 -1.10824607e-01 -1.30144000e-01 -5.86765051e-01  1.63704529e-01 -4.99652386e-01 -2.11345240e-01 -1.31442100e-01  1.99544951e-01
 -3.12790163e-02 -3.55652153e-01 -1.37335032e-01  2.64491141e-01  8.87005404e-02 -1.37353167e-01  1.00572474e-01  2.49525085e-02 -6.01577424e-02  9.82856452e-02 -7.53170490e-01 -6.59875274e-02
  2.85289496e-01 -4.51358259e-02 -8.10270458e-02  2.17433602e-01  2.84811914e-01  2.14316264e-01 -4.33719624e-03 -1.70595914e-01 -1.60527408e-01 -3.14209312e-01  3.36975366e-01 -8.68708268e-02
  2.04451233e-02  5.96314576e-03  4.32574376e-02 -2.82087982e-01  2.68843383e-01  9.54581648e-02  3.54210809e-02 -3.40569854e-01  7.83591047e-02  3.51143241e-01 -1.23295397e-03 -3.22728604e-01
  8.32619332e-03  2.34261334e-01 -4.16449457e-02  1.76099479e-01 -2.66694218e-01 -1.86967611e-01  1.88460425e-01 -5.58586419e-03 -4.57666367e-01 -9.87500697e-02 -1.30505577e-01 -2.53795862e-01
 -4.71849531e-01 -2.01337382e-01  6.12069760e-03  4.44390997e-02  9.82865766e-02  7.44968057e-02 -4.33263808e-01 -2.66801529e-02 -5.97732216e-02 -2.01282740e-01 -2.29605392e-01  1.51577264e-01
 -5.36621869e-01 -1.82225123e-01 -3.17115076e-02  2.16744468e-01 -1.75005957e-01 -4.75827008e-01 -1.59509763e-01  3.32551181e-01 -6.68640211e-02 -2.80598044e-01  5.13058938e-02 -3.59644257e-02
 -2.41305009e-02  8.70935246e-02 -4.70024705e-01 -7.20518157e-02  4.73008454e-02 -3.60768363e-02 -7.44093060e-02  1.67493492e-01 -6.29341424e-01  8.30383152e-02 -4.42278385e-01 -8.54181722e-02
 -3.36095355e-02 -2.57167041e-01  2.68385466e-02  2.63416529e-01  1.42928272e-01  2.43738651e-01  7.15483353e-02  2.63813585e-02 -2.49031801e-02  2.63659716e-01  9.25679728e-02 -3.52170318e-01
  6.26134202e-02  4.07293618e-01  4.68395427e-02  1.50664270e-01 -1.55492023e-01 -3.02807957e-01 -3.00145835e-01  1.22961998e-01 -1.02433607e-01 -9.05142725e-02 -7.15980679e-02  1.19899418e-02
  1.65823802e-01  1.48285523e-01 -1.37696609e-01  4.02341448e-02 -3.48952889e-01 -2.45084584e-01  1.44367099e-01  1.37166530e-02  8.97049159e-02 -1.56230144e-02  3.45361382e-02  1.10593821e-04
 -1.11725904e-01  1.97741196e-01  6.49834499e-02 -1.62930153e-02 -7.85033591e-03  1.04861923e-01 -6.37106895e-02  2.88142189e-02 -2.87274897e-01  5.60871651e-03 -7.73412138e-02 -9.35105160e-02
 -6.38279915e-02 -3.31505425e-02  7.95649216e-02 -3.26694787e-01  1.15342543e-01 -7.59892762e-02 -2.63146788e-01 -3.03302824e-01 -2.59694159e-01 -4.99382496e-01 -1.23950437e-01 -3.20316166e-01
  4.76190239e-01  2.09341913e-01 -3.88852239e-01 -3.44082654e-01 -3.71477127e-01 -3.35877627e-01 -2.53231913e-01 -3.11644465e-01 -2.69762091e-02 -2.98695832e-01 -2.28597760e-01  2.75634527e-02
 -9.74931940e-02 -2.89561272e-01 -7.92984292e-02 -1.69122159e-01  1.07297488e-01 -3.22673082e-01 -1.13377288e-01  3.44955176e-01 -3.37824136e-01 -3.52466822e-01 -6.22834265e-01  8.71868804e-02
 -3.30294937e-01 -2.02606842e-02  1.33039355e-01  8.81533325e-02 -3.58893394e-01 -2.16523632e-01 -1.49212733e-01 -6.25090301e-01  1.69465110e-01 -7.15139061e-02 -1.04023583e-01  5.88935465e-02
  5.73507659e-02  7.88969174e-02 -2.45479211e-01 -2.36033741e-02 -6.70038685e-02 -2.46526226e-01 -1.49520770e-01 -4.00475338e-02 -4.70332384e-01 -5.04808605e-01 -3.32922824e-02  8.24341923e-02
 -1.53719008e-01 -3.17436993e-01 -8.37818906e-02  5.35285547e-02  5.88535555e-02 -1.60292551e-01 -1.15718283e-01  9.96249318e-02 -1.22643620e-01  4.80221249e-02 -3.01653147e-01 -1.11449510e-01
 -3.50052603e-02  4.55616824e-02 -1.52422369e-01  3.18069048e-02 -1.84878364e-01 -2.09040806e-01 -3.24312225e-02  1.13323173e-02 -8.96476209e-02 -1.20600112e-01 -8.92723277e-02 -1.87708549e-02
 -1.77304864e-01  7.60298818e-02  1.62212700e-01 -1.06245959e-02  8.00528526e-02  7.41407797e-02 -3.72730605e-02 -2.09024861e-01 -4.32784945e-01  6.09937608e-02 -1.57495543e-01  1.71606317e-01
 -1.14270546e-01  9.29438323e-02 -4.57600616e-02 -1.12876348e-01 -3.46780531e-02 -6.20134473e-01 -1.30772829e-01 -1.77007467e-01 -3.30845296e-01 -9.34409648e-02 -1.01604216e-01 -1.16086289e-01
 -1.84469372e-01  2.35738367e-01 -2.47462392e-01 -1.91581801e-01 -6.54653013e-02  3.57591882e-02 -1.15211479e-01  6.03608154e-02 -1.11915581e-01 -1.37283593e-01  7.73691162e-02 -7.36774504e-02
 -1.57587290e-01 -3.52566242e-01 -1.49050518e-03  8.77354145e-02  6.37262762e-01 -4.25243765e-01 -1.62417457e-01  8.07039365e-02 -1.78469732e-01 -1.60350636e-01 -2.40547672e-01 -1.81818549e-02
 -1.37799829e-01  2.96806365e-01 -5.96299060e-02  6.50225766e-03  2.15380594e-01  1.75277695e-01 -1.35788471e-01  9.14083198e-02 -1.39973134e-01 -3.62831563e-01  1.62930027e-01  4.66125086e-02
  3.93084530e-03 -1.35383606e-01  2.08095878e-01 -3.05532038e-01 -4.76961434e-01 -1.36600912e-01  1.47793964e-01  9.90978181e-02 -1.15131080e-01  1.29023030e-01 -3.05418819e-01  6.97436184e-02
  6.78063408e-02  2.55398661e-01 -1.79208249e-01  2.95992312e-03  4.11870591e-02  1.78702399e-01  4.54034619e-02 -6.30317628e-01  1.14377536e-01  3.14882994e-02 -3.75389576e-01 -2.59677380e-01
  1.34913504e-01 -8.92032310e-02  3.13775539e-02  1.58227921e-01  3.69147390e-01  1.27497420e-01 -9.86752808e-02 -2.68392533e-01 -1.10124990e-01  8.62236507e-03 -3.88069376e-02  3.16025347e-01
  2.39820257e-01  2.64301300e-01 -3.16088319e-01 -6.06454313e-01  2.91527331e-01  1.35683447e-01  1.59687936e-01  7.06076249e-02 -9.86792073e-02 -7.02746883e-02  1.67384055e-02 -5.77157557e-01
 -2.69981474e-01 -4.83283289e-02 -1.43553212e-01  2.05609426e-01 -1.75589085e-01 -2.96166062e-01  2.93272316e-01  1.84213385e-01 -2.97955841e-01 -5.00770807e-01 -1.22726187e-01 -6.14968799e-02
  1.60864159e-01  2.38544255e-01 -4.23527300e-01 -1.66162580e-01 -2.39689440e-01 -9.99574959e-02 -4.23368633e-01  2.23792508e-01 -2.84899846e-02 -1.51918894e-02 -5.71800292e-01  6.47012070e-02
 -1.01668984e-01 -1.22475341e-01  1.33201569e-01  8.63927305e-02  3.53482038e-01 -5.45510292e-01 -6.35734275e-02 -2.09967077e-01 -2.73791283e-01 -1.93336770e-01 -2.61608958e-01  1.43251583e-01
 -2.47542322e-01  4.75347072e-01 -2.32970417e-02  5.53193837e-02 -1.31258294e-01 -2.64608979e-01  4.59468774e-02 -5.62373281e-01 -2.40031958e-01  2.84850150e-01 -4.13732708e-01 -1.18640512e-01
 -2.14468345e-01 -5.52349329e-01 -2.94772118e-01  4.60036218e-01  2.68125087e-01  2.06712902e-01 -3.51958096e-01 -6.18862867e-01  1.07033029e-01 -1.09165609e-01  1.10514350e-01 -7.05801785e-01
 -7.51341507e-02 -3.57540578e-01  6.73099086e-02 -3.75146568e-02 -1.12112552e-01 -4.36908901e-01 -1.60388961e-01 -1.48367003e-01 -2.38052636e-01 -2.45951135e-02  9.06168371e-02  2.24686740e-03
  2.51660161e-02  1.00809224e-01 -5.05300015e-02  1.62381619e-01 -9.15462449e-02 -1.07374147e-01 -2.16357727e-02 -9.08516720e-03  4.91859652e-02 -6.88377768e-02  6.47062063e-02 -3.59758139e-01
 -4.26191628e-01 -2.12958381e-02  8.83305892e-02  1.65459961e-01 -3.32515351e-02 -6.30729720e-02 -9.48817208e-02 -3.79255507e-03 -5.45561850e-01  1.90943763e-01 -9.63935107e-02 -2.16663525e-01
 -1.07780494e-01 -1.36115775e-01  1.17795197e-02 -1.18924066e-01  1.58332754e-02 -3.76443118e-01 -8.87778923e-02 -2.35646054e-01 -2.94871628e-01 -5.71800828e-01  3.83793227e-02 -5.59819221e-01
  2.07648566e-03  5.04330397e-01 -3.79198581e-01 -4.16864783e-01 -5.40327966e-01  3.11838001e-01 -2.47822672e-01  2.02707782e-01  2.91210443e-01  1.00359358e-01 -5.18295169e-01 -7.57185042e-01
 -8.19845572e-02 -2.57535040e-01  6.59405738e-02 -7.06326887e-02 -2.41279945e-01 -4.70572144e-01 -3.14651579e-02 -2.02230230e-01 -1.88925952e-01 -3.32799166e-01 -2.62908101e-01  5.06948054e-01
 -5.66767991e-01 -2.75873035e-01  2.11396903e-01  2.27603287e-01  2.90785789e-01  1.37911081e-01 -8.79235715e-02  1.34534240e-01 -1.00050770e-01  9.91288293e-03  1.61794752e-01  7.98831508e-02
  1.36713699e-01  1.74041271e-01  1.72127560e-01  9.83607918e-02  2.69529093e-02  1.62491515e-01 -2.46644020e-01 -6.11214995e-01  1.80798888e-01  1.79207698e-01 -9.53498781e-02  1.86985299e-01
 -2.50380367e-01  1.12658953e-02 -1.30134284e-01 -2.17140615e-02  1.43439211e-02  8.15105438e-02  1.21056475e-01  6.45788461e-02  7.08725257e-03 -3.81268233e-01  1.40813366e-02 -2.33828165e-02
 -2.46435657e-01 -6.35486126e-01  6.01684526e-02 -5.50563097e-01  3.13364834e-01  3.36323828e-01 -3.97614032e-01 -4.10614014e-01 -3.38004619e-01 -5.08770347e-02 -2.62527019e-01 -2.33377680e-01
 -1.31058753e-01 -1.42711371e-01 -2.52576321e-01  1.09691940e-01  6.17171116e-02 -3.55522335e-02  1.11179419e-01 -1.21987663e-01  1.59062013e-01 -1.48383602e-01  1.42384125e-02 -4.67144996e-02
 -3.96779239e-01 -3.37922394e-01 -5.96274018e-01  2.63101216e-02 -6.43446445e-01  2.36222833e-01  1.83918595e-01  2.96016723e-01 -3.79407227e-01 -6.17102534e-02 -1.28835186e-01 -4.96656226e-04
  8.41694772e-02  7.48493895e-02 -2.17512801e-01 -2.24513680e-01 -6.54288456e-02  1.47916213e-01 -1.61305636e-01 -7.39844441e-02  3.42562683e-02 -4.72938567e-01  2.17701808e-01  7.77346417e-02
 -2.76487708e-01 -3.29888374e-01 -1.42946407e-01  5.06512821e-02  6.38518482e-02 -1.19051106e-01 -2.04769507e-01 -1.01451464e-01 -8.81827995e-02 -1.98592171e-01 -1.96110338e-01 -1.08959533e-01
  5.85201122e-02  2.73956899e-02 -5.71983345e-02  8.62835348e-02  1.33457690e-01  7.80739309e-03 -1.03344403e-01  4.46423050e-03  2.29037881e-01 -4.63119661e-03 -3.65815349e-02  4.74633202e-02
  7.80785233e-02 -1.05156220e-01  1.07237808e-02 -6.32404163e-02 -8.82480294e-02 -5.76915368e-02  1.32112116e-01  1.30221501e-01  4.53417897e-02 -1.06649008e-02 -1.49834380e-01 -5.21292388e-02
 -4.28332910e-02  4.49533053e-02 -9.98727754e-02 -8.37216377e-02  1.12909950e-01  2.14047637e-02 -4.86077704e-02  1.13965720e-02  6.17399737e-02 -9.54259261e-02 -5.63181527e-02  3.41077819e-02
 -2.53047854e-01  5.02125658e-02 -1.78466067e-01 -1.48438126e-01  1.42460121e-02  1.43886447e-01  3.82693112e-02  1.14590354e-01  1.62939634e-02  5.91460615e-02 -4.13452648e-02 -9.98653471e-02
 -7.74492472e-02 -3.08743060e-01  3.99725363e-02  1.94652840e-01 -3.80915701e-01 -2.77058154e-01 -1.48533046e-01 -2.45699547e-02  8.71653110e-02 -2.46770799e-01 -9.26049948e-02  9.04206112e-02
 -1.01816259e-01 -5.29350229e-02 -2.17106361e-02 -7.22250789e-02  5.01273461e-02  1.40223578e-01 -5.63864559e-02  2.95333322e-02  2.12728858e-01  1.00376956e-01 -6.32032380e-02 -6.75340533e-01
 -2.89711297e-01 -1.53263984e-02 -2.91997671e-01 -3.32151026e-01 -4.25632060e-01 -5.54923832e-01  5.17417490e-02  1.96513399e-01  7.42471293e-02  1.41724288e-01 -3.93134683e-01 -5.00836790e-01
  2.63129026e-01  2.36179069e-01  7.42935343e-03 -5.32295227e-01  1.56579003e-01 -1.40321121e-01  6.01212904e-02 -1.05300352e-01 -2.28341639e-01 -1.45925596e-01 -3.29348035e-02  9.81717557e-02
 -3.98891658e-01  7.31175542e-02 -6.80729449e-02 -1.83297500e-01 -1.44371673e-01 -5.91961034e-02 -1.16463065e-01 -3.52138653e-02 -4.74766910e-01  1.35915160e-01  1.03924297e-01 -4.33316946e-01
 -2.56296098e-01 -5.89119434e-01 -5.63970685e-01  1.02074638e-01  2.22875029e-01 -3.69537924e-03 -2.22719818e-01 -3.96902114e-01 -1.43653676e-01 -2.82637358e-01  2.12434698e-02 -7.02211142e-01
  2.82090232e-02 -2.90125102e-01  1.90155813e-03 -2.03061365e-02 -3.09706509e-01 -4.80786175e-01 -3.57193589e-01 -1.59593821e-01 -2.29106098e-01  1.14840984e-01  1.73662215e-01 -1.83881298e-02
  1.66503608e-01  1.59009218e-01 -1.26808390e-01 -1.37152057e-02 -3.20985585e-01 -6.20392799e-01 -4.13918234e-02 -1.44263804e-01 -7.32119456e-02  5.00638857e-02  1.77603632e-01 -1.52721241e-01
 -2.77235508e-01  2.60813497e-02  2.04331204e-01 -1.36609063e-01 -1.23536892e-01  1.20052285e-02 -1.92271754e-01 -1.42680213e-01 -4.90112126e-01  2.07488239e-01 -1.52506262e-01  3.91269214e-02
 -4.83510606e-02  1.46276653e-01  8.03234875e-02 -2.00697780e-01  9.29300711e-02 -3.88365805e-01 -2.89499938e-01 -5.78822792e-01  3.50515783e-01  1.58345908e-01 -1.66873693e-01  3.03080515e-03
 -8.75310898e-02  1.11441866e-01  1.71937227e-01 -5.31037264e-02 -3.46106440e-01 -1.48349598e-01  2.15907201e-01 -1.58107858e-02  1.03146493e-01  6.12462312e-02 -3.16421390e-01 -7.12360740e-01
  2.12220803e-01  2.06391394e-01 -7.61116892e-02 -2.35355034e-01 -2.82872189e-02  2.08908483e-01  5.28667169e-03 -3.06548625e-01  1.01870606e-02  1.14190280e-01 -4.33470160e-01  6.13883808e-02
 -6.05341554e-01 -1.42374232e-01  1.73679262e-01 -4.40954044e-02 -2.40470290e-01 -2.22465292e-01  2.38107163e-02 -3.25741172e-02 -3.43540877e-01  2.45206162e-01 -1.59642652e-01 -2.36677870e-01
 -2.15061292e-01 -5.77976167e-01 -5.74561894e-01  1.88037351e-01  2.03575164e-01  2.27570906e-02 -4.04753834e-01 -6.17893279e-01 -2.26056337e-01 -1.28513128e-01  9.52537432e-02 -6.43237412e-01
 -1.81472655e-02 -4.01396126e-01  6.12928793e-02  1.83342576e-01 -3.72528315e-01 -6.10365868e-01 -5.17044485e-01 -6.28013089e-02 -3.05847436e-01 -3.07907979e-03 -1.23266084e-02 -1.52227962e-02
 -4.55006808e-01 -1.29799455e-01  1.08673573e-02 -2.28831694e-01 -2.70082980e-01  3.58439863e-01 -1.40689164e-01 -1.65119395e-01 -4.02190626e-01  1.08026229e-01 -2.91062325e-01  1.23218849e-01
  2.51924843e-01 -1.37970909e-01 -4.41863328e-01 -7.46249259e-01 -1.79773405e-01 -2.90253490e-01  5.48622049e-02 -1.34821638e-01 -1.29332811e-01 -4.59923863e-01 -1.38429463e-01 -2.93124747e-02
 -7.41596371e-02 -3.31023127e-01 -1.49108395e-01  4.09520328e-01 -3.81644249e-01 -4.08612750e-02 -2.60225385e-02  8.95512477e-02 -3.14909399e-01 -7.27304220e-02 -1.44816369e-01 -2.52011836e-01
  3.41214426e-02  5.11600589e-03 -5.35820276e-02  2.75019044e-03  7.18524158e-02 -6.22494295e-02 -1.43986464e-01  5.10400441e-03 -1.38470262e-01 -2.36231476e-01  1.11817695e-01  4.47454937e-02
 -3.40832084e-01 -1.96768433e-01 -4.48652171e-02  5.35577685e-02  1.40116751e-01 -1.49983346e-01 -1.39441341e-01  1.44964391e-02  5.85763715e-02 -2.32638493e-01  2.10161996e-03  1.34702481e-03
  1.00746423e-01  4.52196747e-02 -1.56669989e-01 -2.81499252e-02  6.19126745e-02 -1.32240383e-02 -1.04138047e-01 -2.71531820e-01 -5.67421913e-02 -1.75332755e-01  1.64296731e-01  1.38694257e-01
  8.74219984e-02  9.36316252e-02 -5.75493984e-02  9.38137248e-02  9.52605978e-02  1.20871671e-01 -2.04038501e-01 -4.47339565e-01  2.30907314e-02 -1.84026058e-03 -1.37143105e-01  8.18694010e-03
 -1.92547709e-01 -1.32996198e-02  4.06385120e-03  9.05492716e-03  2.37198044e-02 -5.26679456e-02 -3.88397044e-03 -1.43705711e-01 -4.59866133e-03 -6.31816313e-02 -7.84695297e-02 -5.60310222e-02
 -4.23721910e-01 -1.47299007e-01 -1.08658455e-01 -1.52482733e-01 -1.17644206e-01  9.91492271e-02 -2.90559173e-01 -2.74081349e-01 -1.34589955e-01  3.29219215e-02 -3.63501608e-01 -1.40445322e-01
  3.80507484e-02 -3.06076974e-01 -9.61880907e-02 -3.31254303e-02 -3.98825377e-01 -4.02593672e-01 -1.77191533e-02 -7.55621418e-02 -9.14052725e-02 -2.20219180e-01  1.38776936e-03  7.55166751e-04
 -2.13869572e-01 -3.35236847e-01 -3.60927790e-01 -6.42847866e-02 -2.30163455e-01  9.94139612e-02 -1.51379228e-01  1.06259704e-01 -1.67753864e-02  2.11556759e-02 -9.57428068e-02 -6.97203865e-03
 -1.33870728e-02  1.33056134e-01  2.11195126e-01  7.54178241e-02  1.16283581e-01 -7.21697658e-02  2.09183451e-02  1.47045135e-01  3.48478019e-01  2.48620972e-01 -1.65129900e-01 -4.25049275e-01
  2.70260811e-01  4.70995493e-02  6.24758517e-03 -1.62522215e-02  1.14190970e-02  1.13919694e-02 -1.79503784e-01 -1.50280148e-01  4.42407429e-02  1.25352681e-01  1.47439450e-01 -7.60617778e-02
  2.11375877e-02 -1.65440381e-01  2.47577012e-01  1.02610648e-01 -1.05649345e-01 -5.02762496e-01  2.45340560e-02 -4.15533334e-01  5.49255490e-01  3.96648079e-01 -3.16465288e-01 -2.59434640e-01
 -3.73627752e-01  1.16891101e-01 -1.16277486e-01  1.76739037e-01  6.33292049e-02  1.02573231e-01 -5.91477633e-01  1.02107078e-01  1.52321652e-01 -1.80608742e-02  1.04797415e-01  9.58510861e-02
  4.82306898e-01 -4.71618801e-01  5.41827530e-02 -2.10105598e-01 -3.14852387e-01 -4.42057550e-01 -6.34091675e-01  5.97843975e-02 -4.80707079e-01  2.02392399e-01  2.11356446e-01  3.56537461e-01
 -1.59986183e-01  1.59519121e-01 -1.13403630e-02  7.68863857e-02 -1.55961320e-01 -7.03219995e-02  1.77047476e-02  8.26757103e-02  1.86444059e-01 -2.39996836e-01  7.58873075e-02 -7.00267375e-01
 -2.79277623e-01 -5.95156729e-01  2.62882769e-01  1.84979618e-01 -5.55073678e-01 -3.09539646e-01 -2.61881232e-01 -1.64487474e-02  8.12245160e-02  1.88732043e-01 -1.75643370e-01  1.94783732e-01
  7.61997178e-02  4.74389754e-02  1.11612111e-01 -6.74381614e-01  2.91746944e-01  1.25032514e-01 -4.41599816e-01 -2.14141428e-01 -3.47847313e-01  1.12243839e-01 -1.05776310e-01 -2.17802852e-01
 -2.66377747e-01  6.97184354e-02  4.49279286e-02  2.75163483e-02  1.91652134e-01  1.39462382e-01 -1.14804395e-01 -5.82515858e-02 -2.22026750e-01 -3.14271450e-01  4.06914540e-02  2.74900854e-01
 -5.68904042e-01 -3.72897357e-01 -7.58214807e-03  7.38469586e-02  8.05760175e-02 -5.40270448e-01 -1.10893417e-02  1.47975698e-01 -1.17414556e-01 -6.30819844e-03 -6.89594299e-02 -1.63979515e-01
  1.18856452e-01  8.55652317e-02 -4.25440967e-01 -1.09771706e-01  1.83451593e-01 -1.84758767e-01 -6.30866177e-03 -4.02997993e-02  2.62805909e-01  3.63131091e-02  8.97316858e-02 -2.83292860e-01
 -1.68816492e-01  1.34617403e-01  1.84635580e-01 -8.23051389e-03  1.14146896e-01  2.48113960e-01 -5.01928031e-01 -7.46555269e-01  3.69125247e-01  4.24536556e-01  4.46682200e-02 -1.06154881e-01
 -2.55721658e-01  6.10073470e-02 -6.52517080e-02 -6.13904595e-01 -9.72031206e-02 -5.53898998e-02 -5.06115295e-02  3.02310795e-01 -1.47753641e-01 -3.89270663e-01  3.15809518e-01  5.25680892e-02
 -4.39693242e-01  1.00246966e-02 -1.18765406e-01 -2.94419944e-01 -3.80900621e-01  9.68648642e-02 -6.69174939e-02  1.04622766e-01  1.75503101e-02  2.68651526e-02 -2.20405385e-01 -2.43493728e-02
 -1.55337542e-01 -3.13983649e-01  2.17029437e-01  2.35602483e-01 -5.29444993e-01 -5.38867474e-01 -6.66380487e-03 -3.73642717e-04  1.37766600e-02 -4.29738134e-01 -1.68399245e-01  2.12335140e-01
  5.61502874e-02 -1.74117491e-01 -1.41411111e-01 -2.61244535e-01  1.75952520e-02  1.29063889e-01 -4.12418813e-01 -5.78737594e-02  2.67378874e-02  1.49279237e-01 -6.73283637e-02 -3.89318876e-02
 -1.20132461e-01  2.01842804e-02 -1.87444374e-01 -9.12249908e-02 -3.39735121e-01 -2.99978554e-01  1.70342233e-02  8.63875970e-02  3.79493199e-02 -1.33437039e-02 -6.93680346e-02 -4.81457859e-01
  3.28958523e-03  1.06344610e-01  5.73177859e-02 -5.39924443e-01  4.89818491e-02  2.13942647e-01 -8.00499134e-03 -2.53392845e-01 -7.07971528e-02 -1.06670335e-01 -2.86196768e-01  2.29487970e-01
 -5.48102081e-01 -1.59970000e-01  1.02148481e-01 -3.17471594e-01  6.02582842e-02  4.92120273e-02 -4.39508371e-02  1.76235721e-01 -1.06602632e-01 -4.05410379e-01  1.45341689e-03  5.12096472e-02
 -2.74689626e-02 -9.17402506e-02 -4.43315394e-02 -2.28965253e-01 -2.54625201e-01 -3.48492637e-02  6.08838536e-02  2.33752411e-02 -9.42096338e-02 -1.13125801e-01 -1.13836028e-01 -8.08309242e-02
 -9.27197710e-02  8.34493339e-02 -2.10293941e-02  4.57043722e-02  8.48524943e-02 -4.97963326e-03  6.68945834e-02 -5.07474959e-01  2.08638646e-02 -1.72338977e-01 -2.34851107e-01 -1.47173181e-01
 -1.69339940e-01 -2.52719343e-01 -5.51998764e-02 -6.14212036e-01  1.49342030e-01  2.10323274e-01 -2.66506374e-01 -4.99921769e-01 -4.72124726e-01 -1.54994756e-01 -2.66514659e-01  9.40244123e-02
  1.86765850e-01 -8.94505084e-02 -5.68233907e-01 -9.07547101e-02 -8.22419208e-03 -9.53967646e-02  6.15386888e-02 -4.07983303e-01  1.09217115e-01 -3.47385079e-01  2.46657096e-02  1.08978756e-01
 -2.13764355e-01 -3.96255195e-01 -4.28755045e-01  3.22896153e-01 -4.76548254e-01  1.08052291e-01  1.51453078e-01  1.29191369e-01 -4.55417484e-01 -1.04754344e-01 -1.05616741e-01 -7.31478110e-02
  4.23529148e-02  9.95669737e-02 -1.10665031e-01  1.96572673e-03 -9.81745645e-02  1.47176504e-01 -1.35343313e-01 -1.14749692e-01 -1.95672706e-01 -4.11691129e-01  1.48899809e-01  4.55795825e-02
 -1.85412645e-01 -3.48036766e-01 -8.70371535e-02  1.59664545e-02  1.43775314e-01 -3.04965675e-01 -1.84081569e-01 -1.58647988e-02  3.05100456e-02 -9.58031192e-02  5.82144819e-02  7.13035017e-02
 -2.95658186e-02  1.14526354e-01 -4.64920141e-03  1.40605599e-01  6.92805946e-02  1.63712755e-01 -1.28070146e-01 -5.80618111e-03 -3.56525540e-01 -5.08990109e-01 -2.09317803e-02 -5.80896921e-02
 -5.19164912e-02  9.38471407e-02  6.85580596e-02 -2.36015916e-01 -2.47397617e-01 -9.50218886e-02  1.56856030e-01 -1.18224137e-01 -7.32514411e-02 -3.47970314e-02 -2.17163816e-01 -1.20886460e-01
 -4.05562282e-01  1.67872027e-01 -1.98930189e-01  3.16013396e-03 -5.61103150e-02  1.48164406e-01  9.01035219e-02 -1.55694023e-01  3.26094776e-02 -4.55744028e-01 -2.44838908e-01 -4.77905601e-01
 -2.74530768e-01 -2.02801645e-01 -8.05382803e-02 -5.99930435e-02  2.01250970e-01 -2.32826248e-01 -1.56896502e-01 -5.82826929e-03 -1.46333024e-01  5.74558566e-04 -1.51162788e-01  2.71638501e-02
  1.15385853e-01  1.55810684e-01  1.93092413e-02 -1.67711377e-01 -4.20174986e-01  3.46321613e-02 -9.00402069e-02  1.55264497e-01 -2.01204985e-01  3.43339778e-02 -1.01555094e-01 -2.63177872e-01
 -6.83989897e-02  3.14834043e-02  1.00688577e-01  7.85658434e-02 -4.43602920e-01 -1.50543526e-01 -2.83353716e-01 -2.08743945e-01 -2.42513508e-01  2.18813512e-02 -4.93201837e-02  1.30944416e-01
 -1.46782964e-01  5.17931767e-02 -2.24223524e-01 -2.30405945e-02 -4.78841886e-02  6.17237203e-02 -3.06573212e-01  1.59288540e-01  1.19450621e-01  2.04469562e-01 -9.31409933e-03 -1.78939655e-01
 -5.63795529e-02  1.40691474e-01 -6.15725368e-02  1.56306326e-01  1.32461607e-01 -1.11433119e-02 -1.45818591e-01 -9.80865508e-02 -1.35333106e-01 -4.36008513e-01 -1.50116876e-01 -1.42024085e-01
  4.89979275e-02 -7.62309972e-03 -1.29119679e-01  2.44932637e-01  2.23868847e-01  2.53046274e-01  2.01445236e-03 -3.32533598e-01  1.26443967e-01  1.60357744e-01  2.16593772e-01 -1.30218133e-01
